%YAML:1.0
---
opencv_ml_svm:
   format: 3
   svmType: EPS_SVR
   kernel:
      type: LINEAR
   C: 1.0000000000000000e-02
   p: 1.0000000000000001e-01
   term_criteria: { epsilon:1.0000000000000000e-03, iterations:1000 }
   var_count: 756
   sv_total: 1
   support_vectors:
      - [ 1.03031158e-01, -1.30463904e-02, -8.10832251e-03,
          -5.58677129e-03, -4.63840067e-02, -2.08070334e-02,
          -1.20388148e-02, -1.73550155e-02, 9.96714309e-02,
          8.34756643e-02, -9.22838692e-03, -2.13933475e-02,
          2.52674986e-03, -5.25660180e-02, -7.61108997e-04,
          -1.11924084e-02, -7.17406068e-03, 8.79833400e-02,
          1.08288471e-02, -1.59675907e-02, -8.07489082e-03,
          -1.20202145e-02, -2.45083701e-02, -1.02291275e-02,
          -1.12408372e-02, -1.36625618e-02, 7.54703674e-03,
          -3.23884585e-03, -1.26735792e-02, -5.71622932e-03,
          1.33957388e-03, -4.73284386e-02, -3.56492330e-03,
          -1.72411408e-02, -1.71728712e-02, -8.13046843e-03,
          2.71435399e-02, -5.17597236e-03, -1.03056300e-02,
          -7.14315055e-03, -1.18171629e-02, -1.28494750e-03,
          -7.90269952e-03, -8.94572772e-03, 3.09698917e-02,
          4.82512191e-02, 1.36683611e-02, 8.70275684e-03, 2.09013447e-02,
          -3.04319728e-02, 1.07536661e-02, 4.03921539e-03,
          1.18456380e-02, 4.08302248e-02, -1.26164099e-02,
          -1.26724755e-02, -7.25765713e-03, -3.45826056e-03,
          5.27766580e-03, 8.73549085e-04, -3.83246178e-03,
          -1.01666646e-02, -1.05398241e-02, 2.89054937e-03,
          -5.50914695e-03, -1.26130623e-03, 1.95688885e-02,
          -7.26952031e-03, 1.86779387e-02, 1.63950901e-02,
          1.03164287e-02, 3.01208487e-03, 2.03368235e-02, 8.17300938e-03,
          -6.54440737e-06, 5.76384226e-03, -3.47840637e-02,
          1.54210245e-02, 2.07050554e-02, 1.70358606e-02, 1.31769404e-02,
          -7.26617500e-03, 8.67907330e-03, 9.77545697e-03,
          1.04805464e-02, -2.55387686e-02, 1.28647117e-02,
          2.20583864e-02, 8.32762290e-03, -2.16650534e-02,
          -9.59969405e-03, -4.38016979e-03, -4.38059215e-03,
          1.28545798e-02, -6.20884821e-03, 2.13459693e-02,
          3.78352068e-02, 2.13407874e-02, -1.03014717e-02,
          -2.78055295e-02, -6.09529065e-03, 3.97496903e-03,
          1.99590567e-02, 5.85585134e-03, 2.52256021e-02, 3.94974723e-02,
          2.59041861e-02, -2.79540867e-02, 2.80817598e-03,
          1.40663213e-03, 1.07337859e-04, 6.17528148e-03,
          -1.18768802e-02, 1.02153653e-02, 1.86789986e-02,
          4.97973664e-03, -3.76381655e-03, 1.30972527e-02,
          -5.93191478e-03, -1.92172918e-02, -2.26317975e-03,
          -1.25735085e-02, 3.55560519e-03, 7.61192432e-03,
          1.10226087e-02, 9.46439616e-03, -2.58444287e-02,
          -3.33403563e-03, -2.26086332e-03, 1.37784043e-02,
          9.24587157e-03, 9.09471978e-03, 1.61574595e-02, 8.36289581e-03,
          -2.92118583e-02, -1.48554947e-02, 8.31611082e-03,
          7.84274749e-03, 9.87585634e-03, 3.99684155e-04,
          -2.32721283e-03, -5.21984836e-03, -6.38517784e-03,
          -2.45766919e-02, 1.26468102e-02, -4.59178910e-03,
          -8.89760815e-03, 6.97788363e-03, -2.50278264e-02,
          -4.76362091e-03, -1.80951541e-03, 7.36627087e-04,
          1.03261499e-02, 2.41007488e-02, 5.08560613e-03, 5.12261782e-03,
          2.60482747e-02, -3.33266445e-02, -5.67836408e-03,
          -2.83058803e-03, -8.48942553e-04, 2.24085581e-02,
          -1.88085530e-02, 2.75345352e-02, 4.16958183e-02,
          2.71084830e-02, -2.07986366e-02, -1.32011147e-02,
          -2.12960802e-02, -1.70622636e-02, -3.36808860e-02,
          -6.17819605e-03, 4.15963866e-02, 5.51388450e-02,
          5.19844927e-02, -1.44493785e-02, -7.60882022e-03,
          -2.07472332e-02, -1.64423175e-02, -2.11151112e-02,
          3.14739458e-02, -8.52657482e-03, -3.98284430e-03,
          2.79241037e-02, -2.40389761e-02, -3.39231663e-03,
          -1.49875442e-02, -7.62883516e-04, 3.79237756e-02,
          2.34502722e-02, -7.78419990e-03, 2.92045414e-03,
          2.67478097e-02, -8.91208692e-05, 1.30884992e-02,
          -4.21587611e-03, 4.55176318e-03, 3.14219557e-02,
          -1.19154258e-02, 1.94828212e-02, 1.89960375e-02,
          3.61040123e-02, -4.40824544e-03, -5.84473601e-03,
          -2.39876620e-02, -1.09240944e-02, -1.38760014e-02,
          -1.59747694e-02, 2.91022530e-04, 1.72553328e-03,
          1.57765392e-02, 5.52576268e-03, -6.49379333e-03,
          -1.52241029e-02, -1.13973506e-02, -1.32041760e-02,
          -9.79522592e-04, -1.95492711e-03, 1.68577321e-02,
          3.03923059e-02, 8.20776261e-03, 3.21161002e-02, 1.52311418e-02,
          7.01581361e-03, 1.32030277e-02, -2.33169664e-02,
          -9.33070388e-03, 1.49541523e-03, 8.90842639e-03,
          2.99855005e-02, 7.76232174e-03, 3.69833503e-03,
          -9.78982425e-04, -1.90439224e-02, -8.86843540e-03,
          -1.71748828e-03, -2.71417433e-03, 8.74475297e-03,
          1.10210422e-02, -6.75857952e-03, -1.89081617e-02,
          -1.39381383e-02, -8.00449960e-03, -1.19931214e-02,
          -7.13294512e-03, -7.80582102e-03, -3.14153754e-03,
          3.62026468e-02, -8.24760180e-03, -7.97600485e-03,
          -5.23719005e-03, -1.53938765e-02, -1.47552853e-02,
          -8.67019501e-03, 4.09760606e-03, -9.31228325e-03,
          -2.07517445e-02, -8.77493713e-03, -4.07015113e-03,
          -8.97775032e-03, -1.55908326e-02, -1.38563744e-03,
          -1.53680239e-03, 1.25562781e-02, 8.57761595e-03,
          6.30743876e-02, 1.06660621e-02, 2.31746510e-02, 4.50873573e-04,
          -1.46545144e-03, -1.15341861e-02, -5.87206520e-03,
          9.83021222e-04, -6.23847591e-03, -1.43707385e-02,
          -3.83704947e-03, 1.70294743e-03, -3.54150194e-03,
          -1.27781872e-02, -4.03455738e-03, -3.58113321e-03,
          3.16327751e-05, 1.35751721e-02, 2.90879495e-02, 1.59622990e-02,
          1.44241545e-02, 4.40138206e-03, -8.07517301e-03,
          -1.07171629e-02, -1.55210514e-02, -6.97465893e-03,
          -6.25347067e-03, 1.15667684e-02, 5.09936642e-03,
          1.01184491e-02, -4.87407297e-03, -1.37230894e-02,
          -1.94758680e-02, -1.93805546e-02, -1.41870985e-02,
          1.51510304e-03, 1.19230580e-02, 1.52896354e-02, 4.18497622e-02,
          1.70433689e-02, -1.46094291e-02, -1.05248680e-02,
          -1.22086797e-02, -2.68922281e-03, -5.40584372e-03,
          5.31614246e-03, 8.99640564e-03, 1.87967215e-02, 4.74141072e-03,
          -1.11713484e-02, -1.94012895e-02, -1.57710668e-02,
          -1.25827622e-02, -4.32285806e-03, 7.49496836e-03,
          2.33263690e-02, 6.22596517e-02, 4.86847349e-02, 1.29108131e-03,
          -1.42937955e-02, -2.02347394e-02, -1.85888372e-02,
          -8.23494606e-03, -7.06264423e-03, 1.29657350e-02,
          5.21638915e-02, 3.16022113e-02, -3.80645157e-03,
          -1.42493015e-02, -1.56108020e-02, -1.36253629e-02,
          -1.34108067e-02, -9.25329234e-03, 1.18000265e-02,
          4.71887775e-02, 3.22650857e-02, -1.38634467e-04,
          -1.29470937e-02, -9.96974017e-03, -1.83201376e-02,
          -2.12511066e-02, -3.49957868e-02, 3.21340794e-03,
          6.36351705e-02, 5.87129854e-02, 1.57371368e-02, 7.82211125e-03,
          -1.10748631e-03, -1.51323620e-02, -3.87797505e-02,
          -5.49024306e-02, -2.69550621e-03, 4.73208539e-02,
          5.23900539e-02, 2.42972299e-02, -1.22408487e-03,
          -5.12158673e-04, -2.92606233e-03, -1.18549634e-02,
          -1.11802062e-02, -5.21022314e-03, 1.11585613e-02,
          8.77614971e-03, -1.29886298e-03, 5.66491671e-03,
          2.94593330e-02, 2.04940736e-02, 7.40254472e-04,
          -2.02686787e-02, -2.07053553e-02, -2.31752340e-02,
          -1.19008180e-02, -1.11041758e-02, 2.49906350e-02,
          2.25719493e-02, 1.37278024e-04, -3.17858160e-02,
          -5.75962365e-02, -1.73340440e-02, 3.62946675e-03,
          1.75411664e-02, 2.87952479e-02, 1.12258988e-02, 4.34701741e-02,
          2.29961686e-02, -9.68631823e-03, -5.78963496e-02,
          -3.54029797e-02, -2.56083421e-02, -8.99094343e-03,
          2.25274405e-03, -1.64297165e-03, 5.19640148e-02,
          5.82383871e-02, 3.12236771e-02, -2.36613043e-02,
          -2.12426186e-02, -3.04095726e-02, -2.30055414e-02,
          -2.68606208e-02, -8.86265654e-03, 3.89971286e-02,
          4.46918756e-02, 2.93225441e-02, -1.39441937e-02,
          -1.43381646e-02, -2.39454545e-02, -1.99893992e-02,
          -3.05719189e-02, -5.41728921e-03, 5.19668162e-02,
          4.21104170e-02, 6.76740194e-03, -5.59192188e-02,
          -2.89561264e-02, -3.28190736e-02, -1.98707227e-02,
          -2.20959987e-02, -1.96763370e-02, 3.06020621e-02,
          2.49496996e-02, -1.07047148e-03, -2.77412180e-02,
          -2.01509185e-02, -2.01462060e-02, -1.52431615e-02,
          -3.16457041e-02, -1.98241118e-02, 2.35480387e-02,
          2.07856614e-02, 1.12550911e-02, 9.53469519e-03,
          -8.76922719e-03, -1.66604836e-02, -1.28993103e-02,
          -2.73046754e-02, -1.37603842e-02, 6.62815943e-03,
          -1.16061501e-03, -1.67942094e-03, 1.10772215e-02,
          -9.67071578e-03, -7.17375567e-03, -7.50211952e-03,
          -1.44340303e-02, -1.60750560e-02, 1.02168554e-02,
          1.38147762e-02, -9.54622589e-03, 1.10211298e-02,
          -1.04311202e-02, -1.11817615e-02, -8.66655074e-03,
          -2.52501871e-02, -7.74531439e-03, 7.79679650e-03,
          -3.18429171e-04, -7.98919424e-03, 8.87658913e-03,
          -7.50849629e-03, -6.31508837e-03, -7.79563852e-04,
          -9.82470531e-03, -1.93366259e-02, 1.16223458e-03,
          -1.17704039e-02, -3.53015703e-03, 7.91007746e-03,
          -1.12468423e-02, -1.93555783e-02, -1.21515859e-02,
          -2.22454630e-02, -1.94265582e-02, -9.90253966e-03,
          -1.69873293e-02, -5.04914671e-03, 3.68898250e-02,
          -3.51651781e-03, -1.57004818e-02, -1.02227516e-02,
          -2.14126986e-02, 5.72647247e-03, 6.54143002e-03,
          -9.58892796e-03, -7.93069252e-04, 1.54864732e-02,
          5.77991037e-03, -2.75060860e-03, 6.06063893e-03,
          1.11613816e-04, -9.84809361e-03, -2.88283150e-03,
          -1.19299674e-02, -2.59501254e-03, 5.59026971e-02,
          1.89976150e-03, -1.14622694e-02, -2.03764439e-03,
          -1.09512955e-02, -6.99016731e-03, -5.46469213e-03,
          -7.72879226e-04, -4.39436175e-03, -1.39821665e-02,
          -4.96497378e-03, -8.05730058e-04, -3.36510758e-03,
          -7.58049591e-03, 5.36544714e-04, -4.14012978e-03,
          7.00135017e-03, 9.97371133e-03, 3.63630466e-02, 1.01504400e-02,
          8.15130305e-03, -4.03124228e-04, -4.31008078e-03,
          -6.86264271e-03, -8.06956319e-04, 4.03783377e-03,
          4.26607858e-03, -1.83633491e-02, -5.11384476e-03,
          -4.22108499e-03, -6.11264538e-03, -6.88634347e-03,
          6.13437174e-03, 5.25443174e-04, 1.28419437e-02, 1.33818071e-02,
          6.58361837e-02, 2.32914705e-02, 1.16147958e-02, 8.25624727e-03,
          -9.34868236e-04, -1.09143285e-02, -9.25967190e-03,
          -9.69629455e-03, -5.42936986e-03, 4.75263363e-03,
          3.86164780e-03, 4.24102787e-03, 3.69216614e-05,
          -1.16120968e-02, -2.29945127e-02, 1.42430654e-03,
          -1.19345831e-02, -1.31555542e-03, 8.76060128e-03,
          5.92806027e-04, 3.69396731e-02, 2.81798095e-02,
          -2.97023566e-03, -1.39449686e-02, -8.41593929e-03,
          -3.96912452e-03, -5.58924954e-03, 1.68366954e-02,
          3.88321676e-03, -3.89903807e-03, -5.15689934e-03,
          -2.01797485e-02, 3.09586688e-03, 6.11608010e-03,
          5.95398480e-04, 1.29771894e-02, 2.41793450e-02, 8.70576780e-03,
          1.58776958e-02, 8.95619020e-03, 6.03821175e-03,
          -7.60515360e-03, 1.15590554e-03, -9.27551929e-03,
          -9.06181801e-03, -2.85925418e-02, -8.80534016e-03,
          3.91294062e-02, 3.12468708e-02, 1.45157715e-02, 1.48440516e-02,
          5.65824844e-03, -1.03487140e-02, -1.77316479e-02,
          -3.64752375e-02, -3.57474131e-03, 4.15514112e-02,
          4.51550893e-02, 2.53831949e-02, -2.24229210e-04,
          -1.75639216e-04, -4.16949950e-03, 5.26185986e-03,
          3.05732992e-03, -3.41310678e-03, 1.30457878e-02,
          5.25232498e-03, 7.81921484e-03, -7.20983662e-04,
          -3.60407424e-03, -9.72615089e-04, 1.19873034e-02,
          7.82296993e-03, 4.28223517e-03, 2.14008894e-02, 1.41723128e-02,
          1.47200923e-03, 3.22893560e-02, 2.83808596e-02,
          -1.18290205e-04, -1.92866120e-02, -5.28520644e-02,
          -9.16346908e-03, 5.53277368e-03, 1.85250174e-02,
          3.29542384e-02, 1.96595676e-02, 2.97181047e-02, 1.70186553e-02,
          -4.53644898e-03, -4.73362096e-02, -1.38460295e-02,
          -5.87407686e-03, 3.12248914e-04, 9.14579164e-03,
          2.24460587e-02, 2.20391974e-02, 1.42596941e-02, 4.31610923e-03,
          -1.04523068e-02, 5.41948061e-03, 2.01139506e-02,
          1.85904521e-02, 1.50148869e-02, 1.18661374e-02, 6.14431035e-03,
          -3.28781572e-03, 2.37891474e-03, -1.31148202e-02,
          2.08093841e-02, 1.13447644e-02, 5.47635835e-03, 3.94438300e-03,
          8.53087474e-03, 3.29621844e-02, 3.43932286e-02, 1.36632035e-02,
          -1.32952165e-02, -5.09338314e-03, -1.34669989e-02,
          -8.91970377e-03, -1.06685301e-02, -1.77554265e-02,
          1.66686028e-02, 1.44748138e-02, 6.47147605e-03, 4.25105961e-03,
          -1.73209026e-03, -8.41686130e-03, -7.18512479e-03,
          -2.36728583e-02, -1.68518983e-02, -1.31566674e-02,
          -1.78460479e-02, 4.72846301e-03, 1.08023817e-02,
          9.55138821e-03, -5.55711845e-03, -1.40287951e-02,
          -1.99457388e-02, -2.37736497e-02, -9.77056287e-03,
          -1.02268066e-02, 4.11412632e-03, 1.32366531e-02,
          1.27426337e-03, -1.03726722e-02, -1.33692538e-02,
          -2.04932280e-02, -1.19230868e-02, 3.20460973e-03,
          1.82865566e-04, -2.09652819e-03, 3.38105857e-02,
          -1.89730490e-03, -8.32177885e-03, -2.52287858e-03,
          -1.85087137e-02, -5.14854724e-03, 9.21529904e-03,
          2.32607708e-03, 1.14184653e-03, 2.95741055e-02, 9.57838551e-04,
          -7.69829145e-03, -1.50443122e-06, -9.47198272e-03,
          -1.80773195e-02, -6.62871590e-03, -8.25166795e-03,
          5.82908327e-03, 1.71475075e-02, 2.85117212e-03,
          -8.51865858e-03, -1.00058699e-02, -2.00349148e-02,
          -1.10605387e-02, 1.49806123e-03, 1.15387293e-03,
          1.12227704e-02, 2.47947723e-02, 3.62672028e-03,
          -4.58824774e-03, 2.95770278e-05, -2.12047249e-02,
          -2.34309374e-03, 1.33258356e-02, -2.08933721e-03,
          4.24353266e-03, 2.62958799e-02, 7.91248120e-03,
          -8.90335348e-03, -2.47632107e-03, -5.13427844e-03,
          -6.49198191e-03, 1.40415085e-03, -7.74129108e-03,
          -4.21997346e-03, 6.12557605e-02, -1.18065916e-03,
          -1.04078222e-02, -4.23383713e-03, -8.66372790e-03,
          -1.59069803e-02, 4.96881490e-04, 1.51727640e-03,
          1.26481010e-03, 2.20398307e-02, -2.52796919e-03,
          -1.34414090e-02, -7.61042954e-03, -2.12816019e-02,
          -2.13120710e-02, -7.69702997e-03, -1.11940522e-02,
          -1.41557073e-02, 4.29188460e-02, -9.18309484e-03,
          -1.25173507e-02, -1.10866651e-02, -2.51418650e-02 ]
   uncompressed_sv_total: 201
   uncompressed_support_vectors:
      - [ 9.93280336e-02, 7.64584094e-02, 9.97512192e-02, 8.37854668e-02,
          2.58678228e-01, 5.00439219e-02, 4.86519076e-02, 2.79576909e-02,
          2.66649108e-02, 1.78449214e-01, 2.61674792e-01, 2.61674792e-01,
          2.38991126e-01, 2.61674792e-01, 6.77247047e-02, 6.55824021e-02,
          7.26464093e-02, 5.01409546e-02, 6.76175207e-02, 5.38450852e-02,
          5.73267378e-02, 8.38621631e-02, 2.61674792e-01, 1.21650867e-01,
          6.89336583e-02, 6.52412623e-02, 3.08886990e-02, 1.49722651e-01,
          2.30231404e-01, 2.54080623e-01, 2.26916999e-01, 2.61674792e-01,
          2.49111950e-01, 2.61674792e-01, 2.61674792e-01, 1.01920523e-01,
          1.01201698e-01, 2.58839458e-01, 2.58839458e-01, 2.58839458e-01,
          2.14130059e-01, 5.24045974e-02, 9.21408311e-02, 1.19456112e-01,
          1.19463645e-01, 4.70290892e-02, 9.58638340e-02, 8.22127983e-02,
          8.71764943e-02, 2.35068858e-01, 2.10871920e-01, 2.58839458e-01,
          2.58839458e-01, 1.56587794e-01, 6.56637922e-02, 1.75095215e-01,
          2.25494176e-01, 1.56509057e-01, 1.65870383e-01, 1.75648674e-01,
          2.58839458e-01, 2.24980801e-01, 6.41173497e-02, 6.08297996e-03,
          3.20143066e-02, 3.52160297e-02, 3.10597830e-02, 2.58839458e-01,
          1.07484229e-01, 1.54310614e-01, 1.42041907e-01, 1.84413996e-02,
          2.64531728e-02, 1.60331964e-01, 1.83068320e-01, 1.22954153e-01,
          3.44890207e-01, 2.62088120e-01, 3.11906010e-01, 3.34869415e-01,
          6.33737743e-02, 9.31683090e-03, 1.08115308e-01, 1.65291652e-01,
          1.38165623e-01, 3.44890207e-01, 1.23402022e-01, 5.37230633e-02,
          6.54716045e-02, 8.07465892e-03, 3.48723214e-03, 8.48318189e-02,
          9.99977440e-02, 8.35966840e-02, 3.44890207e-01, 9.86705050e-02,
          1.11195244e-01, 1.24071874e-01, 9.46226344e-03, 4.57448838e-03,
          6.33819625e-02, 9.78222564e-02, 7.90152624e-02, 3.44890207e-01,
          3.00790966e-02, 1.50907720e-02, 1.25266248e-02, 4.10958985e-03,
          1.53046800e-02, 3.24450098e-02, 2.51614992e-02, 9.38083902e-02,
          4.12070334e-01, 6.86336681e-02, 3.72474864e-02, 1.21514751e-02,
          1.56609975e-02, 2.13696063e-02, 5.07985391e-02, 2.78427601e-02,
          1.23363331e-01, 4.12070334e-01, 8.64938870e-02, 5.40608205e-02,
          1.55625120e-02, 2.24099588e-02, 4.86308038e-02, 5.00172824e-02,
          2.32408326e-02, 6.13329522e-02, 4.12070334e-01, 8.04867819e-02,
          5.23441918e-02, 2.53000800e-02, 8.16073343e-02, 1.11162655e-01,
          2.86400914e-01, 2.36992300e-01, 2.64040321e-01, 4.12070334e-01,
          7.60297999e-02, 6.66143373e-02, 3.20231654e-02, 1.09956898e-01,
          2.41232757e-02, 5.91649897e-02, 6.69046938e-02, 8.86434764e-02,
          3.28152686e-01, 2.61847023e-02, 1.20657198e-02, 1.05244266e-02,
          7.62482360e-03, 5.70413060e-02, 8.95631090e-02, 7.54951537e-02,
          1.29590422e-01, 3.28152686e-01, 7.65257999e-02, 1.98200736e-02,
          3.55145670e-02, 4.67686653e-02, 3.72533984e-02, 3.10577303e-01,
          3.19199711e-01, 2.58432329e-01, 3.28152686e-01, 3.01146731e-02,
          5.07213101e-02, 1.06786573e-02, 8.88111815e-03, 3.24114971e-02,
          2.91232437e-01, 2.71734983e-01, 2.56667584e-01, 3.28152686e-01,
          6.96137398e-02, 6.42858520e-02, 1.85058080e-02, 1.20105804e-03,
          5.28601557e-02, 4.70013097e-02, 2.60846112e-02, 1.12969704e-01,
          5.01828849e-01, 1.06596336e-01, 3.41801010e-02, 3.42547446e-02,
          1.15119137e-01, 1.70328245e-02, 4.02770890e-03, 2.80261412e-03,
          1.50044337e-02, 3.89895737e-01, 3.65893058e-02, 2.57310774e-02,
          1.16775008e-02, 6.07029200e-02, 1.45005491e-02, 8.70070532e-02,
          6.48940504e-02, 1.29400685e-01, 5.01828849e-01, 7.61675313e-02,
          2.12100204e-02, 9.31149069e-03, 4.11499711e-03, 3.08395922e-03,
          2.55038822e-03, 2.76660058e-03, 1.62894297e-02, 5.01828849e-01,
          1.73330661e-02, 2.97354977e-03, 1.86408649e-03, 3.95280728e-03,
          1.77468602e-02, 4.43080300e-03, 9.09187249e-04, 1.39223794e-02,
          4.93670613e-01, 4.12340015e-02, 3.17401588e-02, 3.03927027e-02,
          8.12923163e-02, 1.12194102e-02, 7.57973548e-03, 1.82462012e-04,
          3.20434012e-02, 4.93670613e-01, 5.68847321e-02, 2.82904636e-02,
          3.07052974e-02, 4.74639349e-02, 1.89011067e-03, 1.84750161e-03,
          1.53429620e-03, 1.04895402e-02, 4.93670613e-01, 1.06761605e-02,
          9.13940836e-04, 5.40019537e-04, 1.90497108e-03, 8.16383865e-04,
          3.71826231e-04, 1.52661858e-04, 1.96310114e-02, 4.93670613e-01,
          1.97641011e-02, 8.59885622e-05, 7.83800206e-05, 8.56353319e-04,
          2.83110011e-02, 3.23434249e-02, 2.78714281e-02, 2.93429922e-02,
          2.82566130e-01, 1.64672598e-01, 1.61100373e-01, 1.52256072e-01,
          8.47547948e-02, 1.72421306e-01, 1.43064559e-01, 1.40890867e-01,
          1.08953886e-01, 2.82566130e-01, 2.82566130e-01, 2.82566130e-01,
          2.82566130e-01, 2.82566130e-01, 2.60248724e-02, 1.60961449e-02,
          1.49749750e-02, 2.36622710e-03, 2.88343877e-02, 3.40796337e-02,
          6.53706118e-02, 6.41797930e-02, 5.44199161e-02, 1.52388871e-01,
          7.55397603e-02, 8.60430002e-02, 4.04519811e-02, 2.82566130e-01,
          1.51116148e-01, 2.79829144e-01, 1.89649120e-01, 2.82566130e-01,
          8.06510150e-02, 4.27931584e-02, 5.58422208e-02, 4.50277515e-02,
          2.42855683e-01, 1.78763807e-01, 2.56047010e-01, 2.19283715e-01,
          1.17318869e-01, 1.01724841e-01, 2.61847097e-02, 2.96351984e-02,
          3.02562062e-02, 2.56047010e-01, 7.44371787e-02, 1.27962485e-01,
          9.87439156e-02, 1.02675527e-01, 1.53290331e-01, 4.25227769e-02,
          6.61251619e-02, 3.84151004e-02, 2.56047010e-01, 1.74633563e-01,
          2.56047010e-01, 2.56047010e-01, 2.56047010e-01, 2.56047010e-01,
          1.01663277e-01, 8.49290565e-02, 3.87077443e-02, 1.47287443e-01,
          1.34713411e-01, 2.56047010e-01, 2.56047010e-01, 2.56047010e-01,
          7.11285248e-02, 3.47241089e-02, 3.95268835e-02, 4.86909375e-02,
          2.74443120e-01, 5.71189560e-02, 6.18469343e-02, 6.04110770e-02,
          4.92249243e-02, 1.09433256e-01, 4.55535911e-02, 4.19348441e-02,
          2.50618327e-02, 2.74443120e-01, 3.63222323e-02, 6.12774491e-02,
          4.89801876e-02, 6.47876635e-02, 2.74443120e-01, 1.34816945e-01,
          1.03901826e-01, 6.06068857e-02, 2.69392163e-01, 8.34510177e-02,
          2.74443120e-01, 2.74443120e-01, 2.72750080e-01, 2.74443120e-01,
          2.27487594e-01, 2.17662483e-01, 7.72783309e-02, 1.21948428e-01,
          4.86611947e-02, 2.65646964e-01, 1.97679609e-01, 2.74443120e-01,
          2.06413701e-01, 9.08037499e-02, 8.90621915e-02, 2.29207538e-02,
          3.42561528e-02, 1.18974242e-02, 1.28170485e-02, 1.10912193e-02,
          9.66567025e-02, 2.63796002e-01, 2.93979496e-01, 2.93979496e-01,
          1.77345216e-01, 8.14008564e-02, 2.18057912e-02, 2.90561933e-02,
          1.85837578e-02, 6.99663311e-02, 2.93979496e-01, 2.55066901e-01,
          2.93979496e-01, 5.88636138e-02, 1.85368247e-02, 2.10947357e-03,
          2.99807321e-02, 4.16883826e-02, 2.48604983e-01, 2.93979496e-01,
          2.93979496e-01, 2.93979496e-01, 2.34722838e-01, 7.19601512e-02,
          1.35990009e-02, 2.69482844e-02, 4.85808328e-02, 1.03714466e-01,
          8.66970345e-02, 3.08483690e-01, 3.08483690e-01, 2.76364982e-01,
          1.60523564e-01, 2.54212152e-02, 4.72613797e-02, 8.65380093e-03,
          1.15648741e-02, 2.94692423e-02, 2.46789485e-01, 2.71872967e-01,
          1.93139359e-01, 3.08483690e-01, 4.83564213e-02, 4.81748544e-02,
          1.23450076e-02, 5.61820227e-04, 1.11692250e-01, 3.08483690e-01,
          3.08483690e-01, 2.54837126e-01, 1.05031952e-01, 1.58434398e-02,
          2.53075156e-02, 1.55765386e-02, 2.17092521e-02, 1.74175650e-02,
          7.46382624e-02, 1.09649234e-01, 1.48554862e-01, 3.08483690e-01,
          4.62405123e-02, 4.92430106e-02, 2.81912405e-02, 3.64066730e-03,
          2.09020730e-02, 5.75745590e-02, 4.97690476e-02, 7.51879439e-02,
          4.61236000e-01, 1.04730956e-01, 8.84016603e-02, 4.73907404e-02,
          2.90254643e-03, 6.20651245e-03, 1.30498945e-03, 2.09535495e-03,
          1.15507571e-02, 3.46832126e-01, 4.64911051e-02, 5.13313413e-02,
          2.84683425e-02, 4.48263483e-03, 2.59948894e-02, 6.54600468e-03,
          9.66400094e-03, 1.73478290e-01, 4.61236000e-01, 2.05015555e-01,
          2.40687534e-01, 1.42066285e-01, 4.26475238e-03, 9.63934325e-03,
          1.57251628e-03, 1.80408545e-03, 5.40295802e-02, 4.61236000e-01,
          1.29371718e-01, 1.43989488e-01, 8.11286122e-02, 4.54425346e-03,
          5.38558559e-03, 5.05131064e-03, 9.18317027e-03, 1.69593059e-02,
          4.60961431e-01, 3.47131789e-02, 1.27048651e-02, 1.43382065e-02,
          2.34409943e-02, 7.77379377e-03, 1.64665151e-02, 2.81168371e-02,
          6.30455688e-02, 4.60961431e-01, 4.97469753e-02, 2.15846635e-02,
          3.33749093e-02, 4.71421815e-02, 4.90680039e-02, 3.81466560e-02,
          3.56763154e-02, 5.89135140e-02, 4.60961431e-01, 8.66459534e-02,
          2.59254761e-02, 3.51911932e-02, 5.65350838e-02, 1.05814748e-01,
          1.02111422e-01, 8.45228210e-02, 1.35089546e-01, 4.60961431e-01,
          1.86525479e-01, 4.59763072e-02, 1.08433597e-01, 1.20959111e-01,
          5.73896691e-02, 2.13220902e-02, 2.26119719e-02, 3.24892700e-02,
          8.01083669e-02, 1.24818329e-02, 1.10233361e-02, 1.29601685e-02,
          2.84885336e-02, 1.93867132e-01, 4.72606719e-02, 4.48805727e-02,
          6.05064221e-02, 3.63988191e-01, 1.02759741e-01, 1.53486595e-01,
          1.08617276e-01, 2.29005396e-01, 7.28443116e-02, 1.13419205e-01,
          1.36729494e-01, 1.61019862e-01, 4.02079016e-01, 4.22027670e-02,
          2.02090684e-02, 2.35356875e-02, 2.93054264e-02, 2.17188582e-01,
          2.59083509e-01, 2.96626240e-01, 2.61541188e-01, 4.02079016e-01,
          1.64535239e-01, 7.97465965e-02, 6.80570453e-02, 9.04174596e-02,
          9.78121832e-02, 1.81985181e-02, 2.56976597e-02, 1.75464079e-02,
          1.14662118e-01, 1.06441550e-01, 2.59889215e-01, 2.00006366e-01,
          2.06214488e-01, 2.42134884e-01, 8.46143663e-02, 4.73097265e-02,
          6.46974295e-02, 9.80454758e-02, 1.43980101e-01, 2.83354461e-01,
          2.83354461e-01, 2.83354461e-01, 1.38762668e-01, 1.16436444e-01,
          1.20062098e-01, 7.37099871e-02, 2.83354461e-01, 7.26302266e-02,
          7.92637467e-02, 6.27407879e-02, 1.28256291e-01, 1.88691959e-01,
          8.65862444e-02, 5.97531237e-02, 1.61903068e-01, 2.83354461e-01,
          1.13820918e-01, 1.71817809e-01, 1.65815085e-01, 2.83354461e-01,
          2.58609623e-01, 7.95190781e-02, 3.56759317e-02, 5.12006097e-02,
          8.23795646e-02, 6.47818074e-02, 2.24987298e-01, 2.12004304e-01,
          2.82938123e-01, 2.82938123e-01, 1.54789880e-01, 1.44381315e-01,
          5.45604415e-02, 2.78810021e-02, 2.07385812e-02, 1.30673423e-01,
          8.48242566e-02, 2.82938123e-01, 2.35030845e-01, 6.40158728e-02,
          3.51425000e-02, 1.15572453e-01, 2.82938123e-01, 5.44593520e-02,
          9.36486199e-02, 7.03114122e-02, 2.82938123e-01, 2.82938123e-01,
          1.21242046e-01, 1.69110715e-01, 9.17303786e-02, 1.84022948e-01,
          3.30199338e-02, 3.89138348e-02, 3.31441350e-02, 2.82938123e-01,
          2.84684062e-01, 1.97621062e-01, 2.62654841e-01, 6.09876290e-02,
          3.38711143e-02, 6.70023775e-03, 1.94364283e-02, 2.65919976e-02,
          2.13779762e-01, 2.75523365e-01, 2.60012567e-01, 2.84684062e-01,
          1.12450853e-01, 9.04755667e-02, 3.65581773e-02, 1.99026316e-02,
          5.56298867e-02, 1.01597808e-01, 2.84684062e-01, 1.20186605e-01,
          2.02933341e-01, 1.06543884e-01, 2.84684062e-01, 5.81480712e-02,
          3.11879292e-02, 4.39946540e-02, 2.64766395e-01, 1.70983031e-01,
          7.67020062e-02, 1.52467966e-01, 1.28889903e-01, 2.84684062e-01,
          1.26728415e-01, 5.08156829e-02, 7.46549591e-02, 1.00636885e-01,
          1.03276134e-01, 2.30158016e-01, 3.47161859e-01, 1.37456194e-01,
          1.17795862e-01, 4.22018692e-02, 1.75732896e-02, 4.23823483e-02,
          5.50909303e-02, 8.80900584e-03, 2.31406372e-02, 2.93973535e-02,
          1.22292727e-01, 4.86050338e-01, 8.31175670e-02, 2.89657321e-02,
          1.74286868e-02, 5.27031766e-03, 5.56841157e-02, 2.90035419e-02,
          5.24147451e-02, 5.63758761e-02, 4.86050338e-01, 1.11450091e-01,
          3.53366919e-02, 5.70056550e-02, 5.54386452e-02, 2.14013946e-03,
          1.11546856e-03, 1.45589188e-03, 6.97383136e-02, 4.86050338e-01,
          5.74812256e-02, 1.24227803e-03, 1.61944190e-03, 2.75469851e-03,
          3.58312717e-03, 1.96548630e-04, 3.24644265e-04, 1.08278915e-01,
          4.87308234e-01, 1.07509926e-01, 5.15146106e-02, 2.81296428e-02,
          6.67981629e-04, 1.47221121e-03, 9.14611563e-04, 1.02265913e-03,
          3.71121094e-02, 4.87308234e-01, 5.19346409e-02, 3.00009549e-02,
          1.53651107e-02, 5.93519828e-04, 2.02325697e-04, 1.98354101e-04,
          2.33302606e-04, 8.10657740e-02, 4.87308234e-01, 7.13269040e-02,
          1.73412918e-04, 2.21164766e-04, 1.96211957e-04, 2.53754668e-04,
          5.53329126e-04, 6.56690856e-04, 2.87699308e-02, 4.87308234e-01,
          2.84596682e-02, 1.10831717e-03, 3.99119162e-04, 1.91691171e-04,
          2.43524238e-02, 2.53909454e-02, 1.39605403e-02, 3.58690619e-02,
          4.90746021e-01, 3.99058685e-02, 6.45165006e-03, 1.09488275e-02,
          1.27111971e-02, 5.35275750e-02, 5.79227209e-02, 2.40361374e-02,
          5.89608997e-02, 4.90746021e-01, 1.16805509e-01, 1.12697454e-02,
          3.83170098e-02, 2.75191814e-02, 4.37084294e-04, 2.46583298e-03,
          1.40443200e-03, 6.32442348e-03, 4.90746021e-01, 8.45913682e-03,
          2.17997120e-03, 8.14159226e-04, 1.74217319e-04, 7.39311858e-04,
          3.77993518e-03, 7.39984156e-04, 1.68553181e-02, 4.90746021e-01,
          2.10088901e-02, 7.17561867e-04, 2.61678157e-04, 3.12524411e-04 ]
      - [ 3.81671498e-03, 2.51397048e-03, 6.60519116e-03, 3.21429851e-03,
          4.36743125e-02, 9.64299194e-04, 2.08807457e-03, 1.77902670e-03,
          3.58987087e-03, 1.31305354e-02, 1.99990589e-02, 1.33019118e-02,
          1.08703032e-01, 6.95478141e-01, 5.07129952e-02, 2.44313553e-02,
          8.45378172e-03, 4.87259850e-02, 6.13076799e-03, 4.17649420e-03,
          6.16947329e-03, 2.42000725e-03, 5.55487238e-02, 2.09617149e-03,
          1.59085507e-03, 2.45940266e-03, 5.84834116e-03, 3.88113107e-03,
          3.17365676e-03, 5.17459167e-03, 3.25090364e-02, 6.95478141e-01,
          3.34504358e-02, 2.55379034e-03, 4.51294333e-03, 2.80743768e-03,
          1.22158127e-02, 8.58649090e-02, 7.32535720e-02, 1.19121492e-01,
          4.24008518e-01, 3.70637253e-02, 1.27509851e-02, 3.04287556e-03,
          2.44081616e-02, 8.91856030e-02, 2.64006972e-01, 2.75384188e-01,
          2.31999829e-01, 4.24008518e-01, 3.61724868e-02, 3.74131128e-02,
          3.59444432e-02, 6.45636097e-02, 7.82550080e-04, 8.43492802e-03,
          4.80695069e-03, 3.57420221e-02, 4.24008518e-01, 5.36254607e-02,
          2.52042748e-02, 1.27775855e-02, 1.52859517e-04, 7.58964475e-03,
          3.40043940e-02, 2.15346050e-02, 5.37437797e-02, 4.24008518e-01,
          9.47132111e-02, 9.35253650e-02, 6.72288314e-02, 8.92005581e-03,
          1.12314448e-01, 1.21025980e-01, 1.41431436e-01, 9.95327458e-02,
          1.78402364e-01, 8.42287689e-02, 3.28436673e-01, 2.16347724e-01,
          1.23044759e-01, 3.07695214e-02, 6.58720732e-02, 1.07680209e-01,
          1.10543236e-01, 3.58981103e-01, 1.63032740e-01, 3.58981103e-01,
          2.87936717e-01, 4.38654199e-02, 1.20943449e-02, 1.67498272e-02,
          1.22283744e-02, 1.84803475e-02, 3.58981103e-01, 6.13167621e-02,
          1.25146791e-01, 8.44887868e-02, 2.23468523e-02, 1.03477631e-02,
          1.90313254e-02, 2.83856802e-02, 4.75821905e-02, 3.58981103e-01,
          8.07392225e-02, 1.71314999e-01, 8.38982016e-02, 9.91527457e-03,
          1.48300501e-02, 1.19057178e-01, 1.91202253e-01, 1.43006548e-01,
          4.42930758e-01, 1.01200759e-01, 2.74572462e-01, 1.29782468e-01,
          1.03770541e-02, 3.76213412e-03, 2.48014163e-02, 3.39988545e-02,
          3.37675847e-02, 4.42930758e-01, 6.91717044e-02, 5.74205257e-02,
          6.45746142e-02, 2.24121548e-02, 8.40114336e-03, 3.22268754e-02,
          5.32969981e-02, 5.74771799e-02, 4.42930758e-01, 4.10135128e-02,
          6.56754971e-02, 2.59129498e-02, 3.31344665e-03, 7.63994223e-03,
          2.88439579e-02, 1.93507485e-02, 6.73601180e-02, 4.42930758e-01,
          3.14428136e-02, 1.89382639e-02, 5.37010748e-03, 7.04127969e-03,
          5.85902855e-03, 2.53457925e-03, 7.85254501e-03, 2.53816918e-02,
          3.71393323e-01, 5.54665029e-02, 2.19664313e-02, 3.52427587e-02,
          2.53835972e-02, 8.78167301e-02, 1.32760361e-01, 1.60088345e-01,
          9.03827697e-02, 3.71393323e-01, 2.74681039e-02, 2.77143810e-02,
          3.24213617e-02, 9.81668234e-02, 2.39135865e-02, 9.53096598e-02,
          8.91711637e-02, 8.47189203e-02, 3.71393323e-01, 4.48980555e-02,
          4.05274667e-02, 1.31314695e-02, 1.79888774e-02, 4.99041863e-02,
          3.71393323e-01, 3.71393323e-01, 2.27971897e-01, 3.71393323e-01,
          4.80647832e-02, 5.49636930e-02, 2.55747903e-02, 4.20565307e-02,
          1.44971326e-01, 2.12324277e-01, 2.41153345e-01, 1.44741967e-01,
          3.08460236e-01, 3.93378027e-02, 5.97165115e-02, 4.50623706e-02,
          1.25056088e-01, 2.23539710e-01, 8.74480307e-02, 1.05992682e-01,
          1.10995375e-01, 3.08460236e-01, 6.54860735e-02, 7.68126175e-02,
          4.77156080e-02, 1.86257616e-01, 4.73006591e-02, 2.83764333e-01,
          3.08460236e-01, 2.67544478e-01, 3.08460236e-01, 3.59691121e-02,
          4.07426879e-02, 2.17647422e-02, 3.15651968e-02, 9.29257423e-02,
          8.44837949e-02, 1.02387041e-01, 1.68287352e-01, 3.08460236e-01,
          8.92884731e-02, 4.23650928e-02, 2.41354480e-02, 3.42640467e-02,
          3.80654186e-01, 3.99056561e-02, 3.63933854e-02, 9.12332237e-02,
          3.80654186e-01, 8.89572203e-02, 1.09398127e-01, 5.15296794e-02,
          3.80654186e-01, 3.80654186e-01, 3.10001280e-02, 7.25887716e-03,
          1.25945406e-02, 6.35078698e-02, 1.16611097e-03, 3.28045664e-03,
          6.09730138e-03, 3.80654186e-01, 1.32441238e-01, 4.75903042e-02,
          3.27491239e-02, 1.17070891e-01, 3.80654186e-01, 1.81017503e-01,
          6.68191016e-02, 4.17322181e-02, 5.00640199e-02, 4.76973020e-02,
          1.43888770e-02, 2.59399377e-02, 2.82256212e-02, 8.02971423e-02,
          6.23777276e-03, 6.96676644e-03, 8.58836528e-03, 3.39883640e-02,
          4.48452681e-03, 3.29574710e-03, 4.32970701e-03, 1.63482572e-03,
          4.69985679e-02, 2.10242812e-03, 1.90634164e-03, 1.69479742e-03,
          4.84025618e-03, 2.28778063e-03, 1.56208023e-03, 6.51981728e-03,
          2.23750994e-02, 7.01730192e-01, 3.63625363e-02, 3.92933749e-03,
          1.72552536e-03, 2.07260391e-03, 1.92567764e-03, 3.75622243e-04,
          9.70693189e-04, 3.54835734e-04, 4.92924117e-02, 7.22076453e-04,
          9.72749258e-04, 6.47023960e-04, 2.27179937e-03, 1.82370329e-03,
          1.02875259e-04, 5.91105502e-03, 2.55082175e-02, 7.01730192e-01,
          2.85058357e-02, 2.48016394e-03, 4.80986375e-04, 1.86987978e-03,
          1.36917777e-04, 4.94823325e-05, 5.67627233e-03, 1.68915801e-02,
          3.46014470e-01, 7.76717812e-02, 1.08480394e-01, 5.48804738e-02,
          7.71759194e-04, 1.99816450e-02, 9.32750013e-03, 1.29019292e-02,
          1.26804290e-02, 3.46014470e-01, 1.64688066e-01, 3.46014470e-01,
          2.60966957e-01, 8.77962559e-02, 4.73798660e-04, 6.19969505e-05,
          7.25799706e-03, 1.66511051e-02, 3.46014470e-01, 5.13085239e-02,
          1.12305053e-01, 5.80803156e-02, 3.98086477e-03, 3.25897709e-02,
          2.21057050e-02, 2.45974082e-02, 9.03236680e-03, 2.74071872e-01,
          1.92716569e-01, 3.46014470e-01, 3.46014470e-01, 1.40896305e-01,
          5.58449626e-02, 1.59040261e-02, 2.39633061e-02, 8.20037164e-03,
          1.87908530e-01, 7.22248480e-02, 2.26759881e-01, 1.88577548e-01,
          1.66017309e-01, 7.18849450e-02, 2.18202733e-02, 5.15433252e-02,
          3.20140682e-02, 3.00695240e-01, 4.40308414e-02, 7.39011094e-02,
          6.16882108e-02, 1.09303594e-01, 1.60034180e-01, 4.45177630e-02,
          4.85871360e-02, 7.75464810e-03, 7.44728297e-02, 1.44361690e-01,
          3.00695240e-01, 3.00695240e-01, 3.00695240e-01, 3.00695240e-01,
          8.32517147e-02, 1.02645323e-01, 3.51529568e-02, 2.94210672e-01,
          6.48580566e-02, 2.31045827e-01, 2.08992362e-01, 3.00695240e-01,
          1.15069903e-01, 1.67146251e-02, 2.76655108e-02, 1.87470913e-02,
          3.09612304e-01, 3.71575020e-02, 4.31324132e-02, 2.49912292e-02,
          1.32547826e-01, 1.44313708e-01, 1.59233749e-01, 1.39321104e-01,
          1.28684491e-01, 3.09612304e-01, 2.24858318e-02, 2.27798335e-02,
          1.63262542e-02, 1.20380782e-01, 3.09612304e-01, 8.10167566e-02,
          5.29355109e-02, 2.07603909e-02, 2.25014791e-01, 4.53034900e-02,
          8.78469273e-02, 1.06836341e-01, 3.09612304e-01, 3.09612304e-01,
          3.09612304e-01, 2.63884276e-01, 1.46096423e-01, 1.22293130e-01,
          3.57963331e-02, 1.61045194e-02, 5.28583080e-02, 3.09612304e-01,
          8.81621391e-02, 2.33412549e-01, 2.38965511e-01, 1.75345644e-01,
          2.79955477e-01, 4.16902117e-02, 5.30610047e-02, 3.24622467e-02,
          6.76764250e-02, 7.69765526e-02, 2.79955477e-01, 2.79955477e-01,
          2.11826876e-01, 2.10301712e-01, 4.73713987e-02, 5.74440174e-02,
          3.69795561e-02, 6.20499924e-02, 1.98568314e-01, 2.79955477e-01,
          2.79955477e-01, 2.26679817e-01, 1.52195945e-01, 4.36114222e-02,
          1.56098083e-02, 3.00544798e-02, 1.30317375e-01, 6.65935278e-02,
          2.79955477e-01, 2.79955477e-01, 1.91087589e-01, 6.77716359e-02,
          2.58782152e-02, 1.77374110e-02, 1.80956535e-02, 4.04771455e-02,
          2.55189687e-02, 2.85087883e-01, 4.04015034e-01, 1.85471609e-01,
          4.04015034e-01, 2.78884843e-02, 1.63979661e-02, 9.54492670e-03,
          2.03853827e-02, 1.79453921e-02, 3.07505783e-02, 4.92575057e-02,
          7.69712180e-02, 4.04015034e-01, 4.19119298e-02, 6.31247275e-03,
          2.02092575e-03, 4.08176798e-03, 1.56478509e-02, 1.63305655e-01,
          2.24462122e-01, 7.05641955e-02, 3.60975921e-01, 1.16355093e-02,
          4.83310455e-03, 4.52814298e-03, 6.89257169e-03, 2.23870296e-03,
          7.72831310e-03, 1.41265169e-02, 2.15037484e-02, 4.04015034e-01,
          1.40796555e-02, 1.93333530e-04, 7.23359059e-04, 2.05185497e-03,
          1.90307125e-02, 9.34769586e-03, 7.78881880e-03, 4.52459678e-02,
          5.27794361e-01, 5.64525276e-02, 8.38123169e-03, 4.78630839e-03,
          6.12899242e-03, 6.67075887e-02, 1.43436156e-02, 4.19829227e-02,
          6.25892356e-02, 3.69279385e-01, 6.24754932e-03, 3.55462846e-03,
          4.06009518e-03, 4.78289239e-02, 2.74378271e-03, 2.77214730e-03,
          2.76005827e-03, 1.95113420e-02, 5.27794361e-01, 1.50287030e-02,
          8.18275556e-04, 3.09086667e-04, 2.92651029e-03, 2.66224239e-02,
          6.22528559e-03, 1.84072256e-02, 4.31628264e-02, 5.27794361e-01,
          4.02126135e-03, 7.78244343e-04, 4.35320981e-04, 2.21269839e-02,
          5.35048312e-04, 0., 0., 2.48930464e-05, 4.02010195e-02,
          7.18578376e-05, 0., 0., 5.35048312e-04, 1.38647587e-03, 0.,
          7.51601299e-04, 8.74250103e-03, 7.03240991e-01, 1.07869692e-02,
          0., 0., 1.38647587e-03, 1.96816138e-04, 0., 0., 0.,
          4.54150960e-02, 0., 0., 0., 1.96816138e-04, 8.21559224e-04, 0.,
          0., 1.35587656e-03, 7.03240991e-01, 2.12533493e-03, 0., 0.,
          8.21559224e-04, 1.66817056e-03, 2.48457072e-04, 1.84066966e-03,
          9.12213046e-03, 4.34193045e-01, 1.48251625e-02, 2.05948874e-02,
          1.33871492e-02, 4.05508187e-03, 1.98393837e-02, 9.07117222e-03,
          8.69968440e-03, 5.71581442e-03, 3.55188638e-01, 9.86341089e-02,
          3.04309249e-01, 2.04121813e-01, 6.99398220e-02, 2.58801971e-02,
          9.08407290e-03, 1.81928519e-02, 2.15796679e-02, 4.34193045e-01,
          3.44978971e-03, 1.96661902e-04, 1.45191603e-04, 1.10714259e-02,
          2.99808502e-01, 6.33729100e-02, 5.50805815e-02, 6.44729063e-02,
          4.34193045e-01, 3.11931688e-02, 3.54613848e-02, 5.32509089e-02,
          2.13747963e-01, 1.31672680e-01, 2.09555067e-02, 1.61412694e-02,
          1.30327940e-02, 5.40802740e-02, 9.35904980e-02, 2.88182527e-01,
          2.72880137e-01, 2.25854576e-01, 2.88182527e-01, 5.39674126e-02,
          3.46688144e-02, 2.05931272e-02, 8.98614526e-02, 4.97439913e-02,
          2.16013744e-01, 1.56031385e-01, 2.88182527e-01, 2.41488367e-01,
          3.57742496e-02, 2.55251564e-02, 5.69406785e-02, 2.88182527e-01,
          7.79766962e-02, 9.21935141e-02, 1.08201772e-01, 2.50298321e-01,
          2.76465386e-01, 4.56153378e-02, 2.93983705e-02, 7.99228698e-02,
          2.88182527e-01, 9.56056118e-02, 8.94697905e-02, 5.98421656e-02,
          2.85472393e-01, 3.06260616e-01, 4.48488444e-02, 1.32712778e-02,
          4.54044808e-03, 3.39149348e-02, 1.29342033e-02, 2.86000762e-02,
          4.38258499e-02, 3.06260616e-01, 3.06260616e-01, 1.12103336e-01,
          8.45259055e-02, 4.92959879e-02, 9.05406550e-02, 1.63659938e-02,
          4.91709914e-03, 3.14942226e-02, 3.06260616e-01, 3.06260616e-01,
          5.23946621e-02, 2.81635672e-02, 5.03410324e-02, 3.06260616e-01,
          2.38426812e-02, 2.59685535e-02, 4.65628970e-03, 3.06260616e-01,
          3.06260616e-01, 3.94315161e-02, 4.46446911e-02, 5.07315546e-02,
          3.06260616e-01, 3.91823649e-02, 7.35228360e-02, 2.63952967e-02,
          3.06260616e-01, 2.94556975e-01, 2.41202489e-01, 2.94556975e-01,
          2.25066558e-01, 2.94556975e-01, 5.32196239e-02, 1.17725767e-02,
          3.62723358e-02, 2.94556975e-01, 6.15810826e-02, 1.72333017e-01,
          2.57853806e-01, 1.60906404e-01, 1.73783079e-01, 2.65410002e-02,
          7.44863926e-03, 7.85366632e-03, 3.20002623e-02, 2.72241980e-01,
          3.73805687e-02, 8.78189206e-02, 1.11947484e-01, 2.94556975e-01,
          1.03191875e-01, 7.46750161e-02, 5.09400703e-02, 2.86466241e-01,
          2.95880791e-02, 1.44158257e-02, 3.09967920e-02, 4.63405401e-02,
          2.94556975e-01, 5.27649000e-02, 1.49674406e-02, 1.41478674e-02,
          3.73767540e-02, 6.95540337e-03, 2.62454059e-02, 3.61060947e-02,
          1.66105516e-02, 4.31565046e-01, 4.45356593e-03, 5.38571505e-04,
          1.58392382e-03, 3.66719160e-03, 1.57874986e-03, 6.57227007e-04,
          9.15727054e-04, 1.17270527e-02, 5.26464105e-01, 9.74443741e-03,
          4.11266577e-04, 1.16174528e-03, 1.67161354e-03, 2.66675372e-03,
          1.69389823e-03, 1.03217352e-03, 3.79542634e-03, 5.01354814e-01,
          2.93425540e-03, 3.29349219e-04, 8.11282429e-04, 2.77096545e-03,
          9.33895644e-04, 9.07831301e-04, 9.29584377e-04, 9.98874847e-03,
          5.26464105e-01, 8.23187735e-03, 3.76055803e-04, 1.10406091e-03,
          1.07922673e-03, 1.15001679e-03, 6.62156090e-04, 1.53908925e-03,
          7.23769842e-03, 4.98690456e-01, 6.97922567e-03, 1.58460706e-03,
          5.42852329e-04, 1.13017473e-03, 4.66847647e-04, 2.81046407e-04,
          5.06681332e-04, 1.83597126e-03, 4.98690456e-01, 3.65640270e-03,
          8.47087882e-04, 2.64205242e-04, 4.45371028e-04, 8.38778564e-04,
          6.76957658e-04, 2.28803954e-03, 7.83937518e-03, 4.98690456e-01,
          6.19877642e-03, 1.59670727e-03, 1.87750359e-03, 1.13741297e-03,
          3.88564687e-04, 2.49046774e-04, 9.59218596e-04, 1.64079550e-03,
          4.98690456e-01, 2.10707984e-03, 7.59187620e-04, 5.15557535e-04,
          4.57480288e-04 ]
      - [ 7.97460005e-02, 2.11434811e-01, 3.17961186e-01, 1.97403133e-01,
          3.17961186e-01, 4.14061174e-02, 1.74640585e-02, 2.47340295e-02,
          5.29131182e-02, 1.37813061e-01, 3.17961186e-01, 3.17961186e-01,
          2.08448961e-01, 1.94922358e-01, 1.43873855e-01, 6.40507191e-02,
          5.77251948e-02, 9.21715274e-02, 3.29473824e-03, 8.90609026e-02,
          1.49497569e-01, 1.43053293e-01, 3.17961186e-01, 8.28001648e-02,
          4.01823968e-02, 3.55862230e-02, 1.25145828e-02, 1.89461578e-02,
          1.42347455e-01, 1.98694915e-01, 1.17965721e-01, 3.17961186e-01,
          1.10000335e-01, 5.81518449e-02, 7.39403591e-02, 4.56031412e-02,
          1.90733820e-01, 1.19837157e-01, 1.61545649e-01, 8.40509906e-02,
          2.51699746e-01, 2.70332992e-01, 1.10026076e-01, 1.21694684e-01,
          1.92879930e-01, 1.51823953e-01, 2.05435872e-01, 1.06654711e-01,
          2.19365522e-01, 2.86568254e-01, 2.86568254e-01, 1.17194355e-01,
          2.05823019e-01, 1.81245431e-01, 7.59550184e-02, 4.40817028e-02,
          4.61386666e-02, 2.98265498e-02, 2.86568254e-01, 1.39243633e-01,
          4.63063829e-02, 9.71449316e-02, 1.53378233e-01, 7.67812952e-02,
          1.35769606e-01, 8.15014318e-02, 1.55912116e-01, 2.86568254e-01,
          1.56429023e-01, 5.18969558e-02, 8.70298147e-02, 1.23518363e-01,
          1.83921799e-01, 2.35524446e-01, 1.08465873e-01, 2.73437172e-01,
          3.42584223e-01, 2.54545748e-01, 9.20921490e-02, 1.52678281e-01,
          1.72406822e-01, 2.36904502e-01, 4.45415676e-02, 1.54282339e-02,
          9.42171291e-02, 3.42584223e-01, 5.80445714e-02, 1.90686882e-02,
          2.48039141e-02, 2.53032058e-01, 2.00345945e-02, 1.69483468e-01,
          9.99912024e-02, 2.02715024e-01, 3.42584223e-01, 7.58402944e-02,
          1.96626112e-02, 2.56811548e-02, 2.03457288e-02, 3.08029237e-03,
          1.29298493e-02, 7.51778716e-03, 3.78323756e-02, 3.42584223e-01,
          1.62513498e-02, 3.77318729e-03, 2.33610068e-03, 2.60599516e-03,
          1.65480301e-01, 4.30301540e-02, 1.25598013e-02, 8.29318315e-02,
          4.05625254e-01, 7.09951147e-02, 1.95049103e-02, 4.40552235e-02,
          1.79122880e-01, 2.15989009e-01, 3.93962450e-02, 4.65420187e-02,
          7.90392384e-02, 4.05625254e-01, 4.33339290e-02, 7.60346884e-03,
          2.43787803e-02, 2.01805025e-01, 1.81164697e-03, 9.24802851e-03,
          1.68857798e-02, 3.07681356e-02, 4.05625254e-01, 2.52258722e-02,
          4.00678860e-03, 3.99419246e-03, 1.96266244e-03, 1.32366074e-02,
          1.53431714e-01, 2.95171142e-01, 2.20672026e-01, 4.05625254e-01,
          2.37602815e-02, 3.05931526e-03, 1.03357770e-02, 4.37123794e-03,
          1.40546024e-01, 4.55696024e-02, 7.01366737e-02, 1.00721076e-01,
          3.97296041e-01, 3.50177176e-02, 3.50819565e-02, 1.58974305e-02,
          1.12668864e-01, 8.77499357e-02, 3.99285182e-02, 5.10765947e-02,
          9.67504382e-02, 3.97296041e-01, 8.31807554e-02, 6.49689138e-02,
          3.18871923e-02, 7.74193630e-02, 1.40007818e-02, 1.97866499e-01,
          3.38010073e-01, 2.60767519e-01, 3.97296041e-01, 2.37338934e-02,
          3.15848948e-03, 8.85673147e-03, 1.36035972e-03, 7.15259183e-03,
          1.01492763e-01, 1.46165982e-01, 1.31069288e-01, 3.97296041e-01,
          4.22442369e-02, 2.43477384e-03, 2.20550993e-03, 2.85232847e-04,
          2.00863674e-01, 5.64431325e-02, 4.96270023e-02, 1.24408923e-01,
          5.14239430e-01, 7.13115036e-02, 3.68623734e-02, 2.27807965e-02,
          1.76492214e-01, 3.44942749e-01, 1.85129493e-02, 1.17483800e-02,
          2.38169823e-02, 2.13088647e-01, 6.27573160e-03, 4.79508610e-03,
          1.17380056e-03, 3.20724756e-01, 2.24761222e-03, 8.53228383e-03,
          1.19942110e-02, 5.36269546e-02, 5.14239430e-01, 4.87982295e-02,
          2.28128745e-03, 1.16184540e-03, 3.11871432e-03, 3.56834638e-03,
          1.51907746e-03, 5.34149818e-03, 1.01842135e-02, 3.03736508e-01,
          9.41248145e-03, 4.28199908e-03, 1.76647794e-03, 4.25539119e-03,
          1.59376562e-01, 2.99428031e-02, 4.03333940e-02, 6.53085262e-02,
          4.74638462e-01, 2.38513704e-02, 2.15208549e-02, 1.87777858e-02,
          1.60937637e-01, 5.16407788e-02, 2.94598509e-02, 4.65840399e-02,
          8.19272548e-02, 4.74638462e-01, 8.41275454e-02, 4.22940627e-02,
          4.34811749e-02, 9.90096629e-02, 1.12823874e-03, 9.30131646e-04,
          4.90851887e-03, 1.88956279e-02, 4.74638462e-01, 1.15443440e-02,
          3.73171968e-03, 2.37615663e-03, 2.52316915e-03, 8.87785340e-04,
          5.23615745e-04, 3.25042941e-03, 2.48832777e-02, 4.74638462e-01,
          2.08222922e-02, 6.13326393e-03, 4.55081603e-03, 3.97434784e-03,
          2.22216593e-03, 7.54495198e-03, 2.40579974e-02, 3.31294686e-02,
          2.95676857e-01, 1.53490767e-01, 1.32180154e-01, 1.17810585e-01,
          2.80806497e-02, 5.43026207e-03, 1.15766730e-02, 2.16660835e-02,
          2.59659830e-02, 2.95676857e-01, 1.81507096e-01, 1.69757709e-01,
          1.66450530e-01, 2.88177021e-02, 1.13246897e-02, 9.94894747e-03,
          2.26077214e-02, 3.56369652e-02, 2.95676857e-01, 2.54981339e-01,
          2.95676857e-01, 2.76414007e-01, 2.93381270e-02, 7.13028833e-02,
          2.37020385e-02, 2.47930065e-02, 1.63243432e-02, 2.60738313e-01,
          2.95676857e-01, 2.95676857e-01, 2.95676857e-01, 1.31255940e-01,
          1.47608276e-02, 7.80837564e-03, 4.68913093e-03, 1.80844348e-02,
          3.87625575e-01, 6.81420863e-02, 5.06909452e-02, 5.42897545e-02,
          2.36750301e-02, 1.09190568e-02, 1.87938735e-02, 1.21733909e-02,
          5.00228927e-02, 3.87625575e-01, 3.70314270e-02, 1.10201119e-02,
          9.28023178e-03, 1.23356376e-02, 2.76198268e-01, 7.79678598e-02,
          2.70756837e-02, 6.53130859e-02, 3.26188534e-01, 1.40808493e-01,
          1.84384689e-01, 1.91686958e-01, 3.11757892e-01, 2.34578609e-01,
          1.24279663e-01, 6.18006028e-02, 1.42291367e-01, 3.87625575e-01,
          1.06476910e-01, 3.83138470e-02, 6.97706267e-02, 1.88224077e-01,
          1.35492748e-02, 1.63031612e-02, 1.05242059e-02, 3.27472575e-02,
          3.36151153e-01, 1.45884650e-02, 4.93526040e-03, 3.07256449e-03,
          8.31980444e-03, 2.72425748e-02, 9.02387314e-03, 7.25982198e-03,
          2.96708476e-02, 3.36151153e-01, 1.64369699e-02, 6.64003659e-03,
          8.53003934e-03, 1.88452080e-02, 3.25850010e-01, 1.33729547e-01,
          1.50637180e-01, 9.83770564e-02, 3.36151153e-01, 7.90689886e-02,
          3.09705175e-02, 5.52994162e-02, 1.78290024e-01, 3.36151153e-01,
          1.90362111e-01, 2.04692334e-01, 1.90018579e-01, 3.36151153e-01,
          1.93704460e-02, 1.70474257e-02, 2.84787286e-02, 3.36151153e-01,
          1.78237557e-02, 4.94058058e-02, 7.67860487e-02, 3.24881598e-02,
          3.13444942e-01, 3.33595388e-02, 1.31487511e-02, 2.13783830e-02,
          1.72150601e-02, 1.82719808e-02, 2.46774286e-01, 3.13444942e-01,
          1.49074107e-01, 3.13444942e-01, 4.53776009e-02, 3.09135783e-02,
          3.62129509e-02, 1.39355287e-02, 2.02534616e-01, 1.97836533e-01,
          2.65200466e-01, 1.78258702e-01, 3.13444942e-01, 3.80914584e-02,
          3.93990204e-02, 4.98179272e-02, 1.66195840e-01, 6.74052984e-02,
          3.13444942e-01, 3.13444942e-01, 2.06190854e-01, 1.62488565e-01,
          5.07844537e-02, 7.61681274e-02, 5.51358126e-02, 8.60408396e-02,
          9.03722830e-03, 2.18543842e-01, 3.65173638e-01, 1.96542859e-01,
          3.65173638e-01, 3.99991833e-02, 1.92407127e-02, 2.51187645e-02,
          8.41796515e-04, 2.52020988e-03, 7.14081824e-02, 9.08652768e-02,
          8.72567520e-02, 3.65173638e-01, 2.97495499e-02, 1.59351376e-03,
          4.70455736e-03, 1.30661661e-04, 1.39479218e-02, 2.84566402e-01,
          3.65173638e-01, 1.51554346e-01, 3.25119227e-01, 3.13661210e-02,
          3.16908248e-02, 1.87532529e-02, 4.69091535e-03, 2.43579480e-03,
          3.76856253e-02, 4.65724692e-02, 4.82084751e-02, 3.65173638e-01,
          2.23945715e-02, 1.33390387e-03, 2.23391061e-03, 2.30241567e-04,
          2.67575169e-03, 9.57149453e-03, 9.41016339e-03, 4.03436944e-02,
          6.20306671e-01, 3.61403152e-02, 9.82715166e-04, 9.19616024e-04,
          2.29286938e-03, 4.25653812e-03, 8.82141525e-04, 1.34954019e-03,
          6.44370122e-03, 3.04524750e-01, 7.57419597e-03, 3.12266103e-03,
          1.38462090e-03, 3.95874074e-03, 8.54024489e-04, 1.05866336e-03,
          5.56419487e-04, 1.66275613e-02, 6.20306671e-01, 3.25716920e-02,
          3.40494298e-04, 1.24657832e-04, 3.35386547e-04, 2.00587348e-03,
          2.24405871e-04, 2.13478386e-04, 2.52827816e-03, 3.56183141e-01,
          3.92886344e-03, 8.30153353e-04, 2.22419170e-04, 1.60779862e-03,
          6.99169119e-04, 1.00990517e-04, 5.38903812e-04, 4.11711307e-03,
          4.98723119e-01, 4.54434752e-03, 6.57172466e-04, 1.92762294e-04,
          6.99169119e-04, 1.62236727e-04, 2.28031786e-04, 6.98275690e-04,
          5.95821440e-03, 4.98723119e-01, 5.47722541e-03, 1.92332038e-04,
          6.42741434e-05, 1.62236727e-04, 4.42939694e-04, 1.92854441e-06,
          1.01908321e-04, 1.34052907e-03, 4.98723119e-01, 1.36790948e-03,
          1.42798803e-04, 3.28172137e-05, 4.42939694e-04, 6.27680492e-05,
          1.37875846e-04, 4.18985815e-04, 1.94158661e-03, 4.98723119e-01,
          2.52422667e-03, 1.42251927e-04, 4.75382112e-05, 6.27680492e-05,
          1.12443492e-02, 2.94444896e-03, 1.02258325e-02, 5.20218462e-02,
          3.51125479e-01, 1.90383106e-01, 2.22682670e-01, 1.59892812e-01,
          1.67294350e-02, 9.48525071e-02, 2.34093964e-02, 1.95648167e-02,
          7.68817682e-03, 2.71500260e-01, 3.01416606e-01, 3.51125479e-01,
          3.09347451e-01, 1.70620978e-01, 2.26665474e-03, 7.80647737e-04,
          2.60353298e-03, 4.18547578e-02, 3.51125479e-01, 6.99533969e-02,
          2.94435155e-02, 2.35334411e-02, 2.15847744e-03, 5.65572530e-02,
          7.29483319e-03, 9.22636781e-03, 1.00032687e-02, 2.92233258e-01,
          1.59673348e-01, 1.94784835e-01, 1.77212656e-01, 1.44497350e-01,
          2.59613007e-01, 6.04771636e-02, 2.33368613e-02, 2.70821899e-02,
          1.03935860e-01, 1.57830760e-01, 1.89980775e-01, 1.95047095e-01,
          2.67143160e-01, 2.67143160e-01, 9.67365354e-02, 4.66373079e-02,
          6.78601786e-02, 2.67143160e-01, 1.34439707e-01, 8.60281065e-02,
          1.38356969e-01, 2.67143160e-01, 1.79414451e-01, 2.08375528e-02,
          1.63538754e-02, 1.23730572e-02, 6.71752989e-02, 1.59877181e-01,
          2.57974625e-01, 2.17156291e-01, 2.67143160e-01, 2.67143160e-01,
          4.08741124e-02, 1.50379930e-02, 1.21071804e-02, 9.20379981e-02,
          1.11129321e-01, 1.70556441e-01, 1.61412627e-01, 2.67143160e-01,
          2.83562481e-01, 1.23026796e-01, 1.38381854e-01, 6.86599389e-02,
          1.60612777e-01, 6.88326731e-02, 3.98476012e-02, 8.40934739e-02,
          2.42750779e-01, 2.83562481e-01, 2.07982570e-01, 2.47485802e-01,
          1.11873679e-01, 6.99217096e-02, 3.48875998e-03, 1.09150410e-02,
          2.70533711e-02, 2.80119807e-01, 2.83562481e-01, 7.99863189e-02,
          6.71363696e-02, 2.64283866e-02, 3.96105237e-02, 3.36543098e-02,
          3.50534506e-02, 6.17602691e-02, 2.83562481e-01, 2.83562481e-01,
          2.57314235e-01, 2.83562481e-01, 9.01123807e-02, 3.78939249e-02,
          5.71972318e-03, 9.47591290e-03, 2.66999621e-02, 2.83562481e-01,
          2.97259063e-01, 2.97259063e-01, 2.97259063e-01, 1.86919153e-01,
          1.04317784e-01, 8.06166418e-03, 2.31912993e-02, 2.67122369e-02,
          1.99683502e-01, 6.50850385e-02, 2.97259063e-01, 2.97259063e-01,
          1.87071770e-01, 3.70037593e-02, 1.13577256e-02, 3.24870460e-02,
          1.53674493e-02, 6.22105077e-02, 2.97259063e-01, 2.97259063e-01,
          2.97259063e-01, 9.39786881e-02, 6.05172254e-02, 1.15699936e-02,
          1.04648732e-02, 2.67473329e-02, 1.38604209e-01, 6.24869168e-02,
          1.65586278e-01, 2.97259063e-01, 5.46970367e-02, 3.03782616e-02,
          8.39085691e-03, 5.15738688e-03, 7.86216650e-03, 2.82708649e-02,
          1.18357595e-02, 2.59190202e-01, 3.83711517e-01, 1.12448215e-01,
          2.82294184e-01, 5.99024119e-03, 1.42959720e-02, 3.93213192e-03,
          7.77078979e-03, 2.52141338e-03, 2.35044938e-02, 2.73376759e-02,
          3.83284464e-02, 5.41451037e-01, 2.45359000e-02, 2.41541813e-04,
          1.46127073e-04, 9.64863866e-04, 4.80153272e-03, 3.30511853e-02,
          5.68363406e-02, 1.54567985e-02, 3.03989321e-01, 2.63514649e-03,
          9.81816673e-04, 8.53180944e-04, 3.70537490e-03, 1.46216911e-03,
          1.09591358e-03, 1.16991531e-03, 2.12611575e-02, 5.41451037e-01,
          1.40061509e-02, 3.08599760e-04, 5.21592330e-04, 1.18766061e-03,
          7.01569443e-05, 1.12154776e-04, 1.04833845e-04, 2.16144398e-02,
          6.18913829e-01, 2.68513542e-02, 0., 0., 5.16743748e-05,
          1.06469342e-04, 0., 0., 7.57763570e-04, 3.11858356e-01,
          1.65434578e-03, 0., 0., 1.06469342e-04, 3.61823222e-05,
          4.02282203e-05, 2.17587967e-06, 2.24799607e-02, 6.18913829e-01,
          1.38521818e-02, 0., 0., 2.77811541e-05, 0., 0., 0.,
          1.01390562e-03, 3.58561486e-01, 3.07570095e-04, 0., 0., 0.,
          3.49250404e-05, 0., 0., 6.84997140e-05, 4.98753071e-01,
          2.94875226e-05, 0., 0., 3.49250404e-05, 8.46243347e-06,
          8.31680973e-06, 2.48870674e-05, 5.32775593e-05, 4.98753071e-01,
          1.87293554e-04, 0., 0., 8.46243347e-06, 0., 0., 0., 0.,
          4.98753071e-01, 0., 0., 0., 0., 0., 0., 0., 0., 4.98753071e-01,
          0., 0., 0., 0. ]
      - [ 1.07650924e-03, 5.27104945e-04, 1.57729292e-03, 0.,
          1.38520533e-02, 0., 8.99298990e-04, 3.00530635e-04,
          1.07650924e-03, 1.33034457e-02, 5.03770681e-03, 1.50746861e-02,
          2.89543695e-03, 7.01452672e-01, 1.03680631e-02, 1.00127030e-02,
          3.34607693e-03, 1.33034457e-02, 4.90133883e-03, 9.56750591e-04,
          2.86295125e-03, 0., 1.58340596e-02, 0., 7.22210668e-03,
          2.41350732e-03, 4.90133883e-03, 4.31416146e-02, 8.88687186e-03,
          2.65928209e-02, 8.55229795e-03, 7.01452672e-01, 6.09897170e-03,
          5.11578172e-02, 1.70960724e-02, 4.31416146e-02, 9.39193554e-03,
          2.25938838e-02, 3.25228311e-02, 3.69771160e-02, 4.01461452e-01,
          2.77510397e-02, 1.40863294e-02, 4.28131921e-03, 1.31673901e-03,
          7.72927776e-02, 1.00448348e-01, 1.58619478e-01, 1.67415202e-01,
          4.01461452e-01, 2.44330212e-01, 1.45167381e-01, 1.06102675e-01,
          3.00181285e-02, 4.35926439e-03, 4.78106493e-04, 8.79672170e-03,
          2.92199850e-02, 4.01461452e-01, 2.95997597e-02, 8.48748442e-03,
          4.15121717e-03, 1.47468585e-03, 7.04969466e-02, 6.22255076e-03,
          1.02045193e-01, 1.38060927e-01, 4.01461452e-01, 2.87118167e-01,
          1.63650155e-01, 1.93243474e-01, 4.63495180e-02, 7.36180320e-02,
          1.45842850e-01, 2.12593228e-01, 1.26434192e-01, 2.78920263e-01,
          2.03871250e-01, 1.15568325e-01, 1.23776153e-01, 3.94717567e-02,
          2.92776357e-02, 1.17351934e-01, 1.98171303e-01, 7.84178376e-02,
          2.78920263e-01, 1.92956790e-01, 2.07565561e-01, 9.10515338e-02,
          4.18615900e-02, 8.08895826e-02, 1.08642662e-02, 7.31611773e-02,
          7.16232657e-02, 2.78920263e-01, 2.78920263e-01, 2.78920263e-01,
          2.78920263e-01, 1.32140070e-01, 9.44891348e-02, 1.88814402e-02,
          7.77808726e-02, 4.88021895e-02, 2.78920263e-01, 1.27425671e-01,
          1.92548856e-01, 1.26947045e-01, 1.44259274e-01, 1.54292816e-02,
          1.34144753e-01, 3.03086132e-01, 1.03066944e-01, 3.78507197e-01,
          1.39804497e-01, 1.77015662e-01, 5.85330501e-02, 3.03074103e-02,
          3.07724234e-02, 7.90377557e-02, 1.77140459e-01, 7.44944215e-02,
          3.78507197e-01, 5.40032946e-02, 3.08726244e-02, 3.02641355e-02,
          2.10819840e-02, 1.32194057e-01, 4.71960232e-02, 1.32672772e-01,
          7.13587180e-02, 3.78507197e-01, 8.76452625e-02, 5.33873141e-02,
          3.56762446e-02, 8.40109736e-02, 2.31343791e-01, 1.48816064e-01,
          1.44868374e-01, 1.34436756e-01, 3.78507197e-01, 5.37998155e-02,
          1.30044231e-02, 1.25560882e-02, 1.36555925e-01, 3.27890962e-02,
          6.18327260e-02, 1.51114538e-01, 7.59634823e-02, 3.09428781e-01,
          4.59718965e-02, 1.30914692e-02, 1.70436222e-02, 2.05984246e-02,
          6.06115721e-02, 1.51157513e-01, 3.09428781e-01, 1.62121072e-01,
          3.09428781e-01, 4.02667001e-02, 7.61137577e-03, 8.41176882e-03,
          3.40660848e-02, 1.07925460e-01, 2.36454949e-01, 3.09428781e-01,
          1.37399942e-01, 3.09428781e-01, 4.73773815e-02, 1.63649302e-02,
          1.06326640e-02, 8.53735730e-02, 5.05700596e-02, 3.09428781e-01,
          3.09428781e-01, 1.79668948e-01, 3.09428781e-01, 4.76084687e-02,
          8.13448429e-03, 7.52104772e-03, 7.16880187e-02, 6.96462244e-02,
          1.12372041e-01, 2.72443354e-01, 1.74195588e-01, 4.02574837e-01,
          3.75101641e-02, 7.21188821e-03, 7.92081188e-03, 3.22269462e-02,
          5.18032536e-03, 9.01746657e-03, 2.26918217e-02, 3.06835081e-02,
          4.02574837e-01, 1.45165240e-02, 2.58803577e-03, 2.06359406e-03,
          3.06128059e-03, 2.47436780e-02, 2.00049296e-01, 3.91505271e-01,
          1.52444184e-01, 4.02574837e-01, 4.48278859e-02, 3.13543540e-04,
          1.82834046e-03, 3.59991118e-02, 1.97238033e-03, 6.27965247e-03,
          1.35115534e-02, 2.17779577e-02, 4.02574837e-01, 1.22677665e-02,
          1.03460648e-03, 3.26011243e-04, 6.39056787e-04, 4.83447715e-04,
          5.69258846e-05, 1.99239847e-04, 1.77906104e-03, 4.98750657e-01,
          1.57027284e-03, 5.86115639e-04, 1.78730013e-04, 4.83447715e-04,
          7.90268459e-05, 5.38680069e-07, 1.64405901e-06, 6.66225387e-04,
          4.98750657e-01, 7.14171620e-04, 6.35723554e-05, 2.13662224e-05,
          7.90268459e-05, 3.51081981e-04, 6.57700148e-05, 2.18197369e-04,
          5.74879930e-04, 4.98750657e-01, 1.10275799e-03, 5.85984031e-04,
          1.83513985e-04, 3.51081981e-04, 5.51445701e-05, 0., 0.,
          1.49893167e-04, 4.98750657e-01, 4.36892820e-04, 6.88902073e-05,
          2.33713872e-05, 5.51445701e-05, 5.40863303e-03, 3.72488255e-04,
          1.11462257e-03, 0., 1.36746792e-02, 0., 6.07253239e-03,
          2.02933839e-03, 5.40863303e-03, 3.80089171e-02, 4.76222998e-03,
          1.42503586e-02, 2.79561291e-03, 7.01052785e-01, 4.96613421e-03,
          4.69358899e-02, 1.56851746e-02, 3.80089171e-02, 6.15007523e-03,
          7.96023174e-04, 4.35571710e-04, 0., 1.94379073e-02, 0.,
          3.23953386e-03, 1.08259788e-03, 6.01423439e-03, 2.85464991e-02,
          6.37470651e-03, 1.06409835e-02, 9.24367551e-03, 7.01052785e-01,
          1.10940645e-02, 3.96095924e-02, 1.32368580e-02, 2.79578511e-02,
          1.77527766e-03, 1.13270427e-04, 3.30682541e-03, 2.54620127e-02,
          4.79007244e-01, 2.14493908e-02, 1.77253480e-03, 8.03033530e-04,
          8.71909666e-04, 2.39595640e-02, 1.01795129e-03, 4.27274145e-02,
          1.11452289e-01, 4.79007244e-01, 1.41368255e-01, 1.22619487e-01,
          1.00292891e-01, 2.47820131e-02, 4.63911827e-04, 7.95486267e-05,
          1.82505450e-04, 2.18115039e-02, 4.79007244e-01, 2.36465465e-02,
          4.79652459e-04, 1.60291762e-04, 4.60036128e-04, 7.85426609e-03,
          2.91908300e-03, 3.63727077e-03, 7.39799216e-02, 4.79007244e-01,
          8.29178914e-02, 4.31548543e-02, 1.99196637e-02, 7.38833798e-03,
          5.21528125e-02, 2.58843903e-03, 2.94743907e-02, 5.69327958e-02,
          2.75211662e-01, 1.36919379e-01, 2.75211662e-01, 2.36656100e-01,
          1.36460438e-01, 1.69225454e-01, 1.95604283e-02, 7.52040744e-02,
          2.58684065e-02, 2.75211662e-01, 1.07902095e-01, 2.75211662e-01,
          2.17490271e-01, 2.58640438e-01, 4.46010605e-02, 1.02119390e-02,
          1.05671547e-02, 3.53606343e-02, 2.75211662e-01, 5.20310812e-02,
          2.51457930e-01, 1.20130181e-01, 8.96446034e-02, 1.95608020e-01,
          2.08437853e-02, 3.02153565e-02, 2.53580865e-02, 1.24877982e-01,
          6.63445517e-02, 2.75211662e-01, 2.31416181e-01, 2.75211662e-01,
          2.48216450e-01, 6.15675114e-02, 1.26409337e-01, 2.84496155e-02,
          2.74284065e-01, 9.33145583e-02, 8.59159678e-02, 8.09622258e-02,
          2.01952577e-01, 2.74284065e-01, 2.01173633e-01, 2.08632171e-01,
          1.12554476e-01, 1.87946692e-01, 2.95090228e-02, 1.16155231e-02,
          1.95605848e-02, 2.21189141e-01, 2.74284065e-01, 6.58289045e-02,
          7.33363181e-02, 2.43194140e-02, 1.27450809e-01, 6.66111261e-02,
          1.76298887e-01, 1.17597491e-01, 2.74284065e-01, 2.74284065e-01,
          2.20519289e-01, 2.74284065e-01, 9.64658037e-02, 8.09182450e-02,
          1.90551858e-02, 1.90938283e-02, 4.01190594e-02, 2.74284065e-01,
          2.69400328e-01, 2.69400328e-01, 2.69400328e-01, 2.12268278e-01,
          2.22039327e-01, 2.97718700e-02, 2.32310593e-02, 1.68450437e-02,
          1.74096212e-01, 1.00273751e-01, 2.69400328e-01, 2.69400328e-01,
          1.59843445e-01, 2.57804662e-01, 2.23078858e-02, 1.45920487e-02,
          9.41025838e-03, 6.65100813e-02, 2.69400328e-01, 2.26570487e-01,
          2.69400328e-01, 1.64778262e-01, 1.61947012e-01, 2.64396574e-02,
          3.73366177e-02, 2.26576459e-02, 2.17282519e-01, 1.08292140e-01,
          6.55896664e-02, 1.31284967e-01, 8.35395008e-02, 2.38696665e-01,
          2.02742163e-02, 1.83664877e-02, 4.58165258e-03, 5.55198602e-02,
          3.30234482e-03, 1.25398234e-01, 2.54221052e-01, 7.63295963e-02,
          4.75961119e-01, 2.18885913e-02, 7.09918910e-04, 2.31337245e-03,
          1.53908925e-02, 5.56902320e-04, 9.96492803e-04, 1.54966954e-03,
          1.18356487e-02, 4.75961119e-01, 8.92660208e-03, 3.25052242e-04,
          1.97879708e-04, 5.78902662e-04, 2.50366936e-03, 8.81494302e-03,
          2.23603453e-02, 2.88987942e-02, 4.75961119e-01, 1.74339134e-02,
          6.64778345e-04, 1.21193228e-03, 3.24811670e-03, 6.51552808e-04,
          4.69391925e-05, 5.24194984e-05, 8.96041654e-03, 4.75961119e-01,
          1.17235919e-02, 1.27402775e-04, 1.04142338e-04, 6.61560160e-04,
          2.48564786e-04, 1.13139340e-05, 3.37178099e-05, 4.34449357e-05,
          4.98753041e-01, 2.99697684e-04, 7.62798154e-05, 2.57175961e-05,
          2.48564786e-04, 3.83109800e-05, 0., 0., 0., 4.98753041e-01,
          1.05423132e-04, 1.08424638e-05, 3.70273528e-06, 3.83109800e-05,
          2.42144029e-04, 0., 0., 1.83509081e-04, 4.98753041e-01,
          2.36054126e-04, 2.01407292e-05, 6.59917850e-06, 2.42144029e-04,
          3.11782751e-05, 0., 0., 5.25325158e-05, 4.98753041e-01, 0.,
          1.34271534e-06, 4.39945268e-07, 3.11782751e-05, 7.15689035e-03,
          3.41828377e-03, 3.25480290e-03, 8.39708489e-04, 1.77853927e-02,
          5.18322038e-03, 2.42766365e-03, 3.53826722e-03, 7.17233215e-03,
          3.05387527e-02, 1.76297203e-02, 2.24990845e-02, 1.59572009e-02,
          6.17187560e-01, 2.34589260e-02, 2.83304770e-02, 2.46733092e-02,
          2.95344070e-02, 1.78186037e-02, 3.09353974e-03, 3.94043140e-03,
          1.28168603e-02, 2.99944393e-02, 1.92832276e-02, 7.53631908e-03,
          9.85843502e-03, 2.29470804e-02, 3.42550963e-01, 4.43848893e-02,
          6.09557442e-02, 1.54209480e-01, 6.17187560e-01, 5.59520833e-02,
          6.65717125e-02, 8.44282880e-02, 2.50428349e-01, 5.18764020e-04,
          2.71159864e-04, 5.52135927e-04, 3.36059257e-02, 4.73030150e-01,
          3.03287469e-02, 5.48653072e-04, 3.61351442e-04, 5.06481738e-04,
          1.77213456e-02, 1.01512810e-02, 9.93272103e-03, 1.10333413e-01,
          4.73030150e-01, 9.25561115e-02, 1.67553185e-03, 5.69594884e-03,
          1.28783761e-02, 3.20984274e-02, 1.00614605e-02, 1.46383578e-02,
          3.90585288e-02, 4.73030150e-01, 5.30899316e-02, 3.26297916e-02,
          1.15514165e-02, 2.91176140e-02, 8.06508362e-02, 4.45835777e-02,
          6.19970039e-02, 1.50656417e-01, 4.73030150e-01, 1.44171640e-01,
          7.02323169e-02, 3.83422859e-02, 8.23433399e-02, 9.30340961e-02,
          4.61601466e-02, 6.40953705e-02, 7.32921734e-02, 3.31799865e-01,
          6.69898763e-02, 8.69743973e-02, 6.91287592e-02, 8.44546407e-02,
          1.73681229e-01, 4.70884889e-02, 8.32429156e-02, 8.04132298e-02,
          3.31799865e-01, 6.12021349e-02, 2.11614072e-01, 1.25662640e-01,
          2.22517431e-01, 2.01547474e-01, 6.97591230e-02, 1.46478713e-01,
          1.06682979e-01, 3.31799865e-01, 1.08544126e-01, 7.48553798e-02,
          9.11951214e-02, 1.78519264e-01, 2.68809795e-01, 6.07738122e-02,
          1.70587525e-01, 1.06518574e-01, 3.31799865e-01, 1.26883224e-01,
          1.13110080e-01, 8.95898566e-02, 2.51529783e-01, 2.32724875e-01,
          7.57434815e-02, 5.52793443e-02, 7.15254843e-02, 2.55665481e-01,
          5.76929636e-02, 7.37776160e-02, 5.28876968e-02, 2.49043524e-01,
          2.55665481e-01, 1.82642519e-01, 1.73153281e-01, 1.58787191e-01,
          2.47287437e-01, 8.38755667e-02, 2.54584197e-02, 6.48759902e-02,
          2.55665481e-01, 1.90037146e-01, 8.04402307e-02, 7.02179149e-02,
          1.27703711e-01, 2.55665481e-01, 1.17170520e-01, 3.07872612e-02,
          3.56402472e-02, 1.66506663e-01, 2.55665481e-01, 1.71481580e-01,
          1.26144603e-01, 1.69373438e-01, 2.55665481e-01, 2.08391041e-01,
          8.07647035e-02, 7.19904155e-02, 2.55665481e-01, 3.03967476e-01,
          1.38709679e-01, 1.98875546e-01, 1.97491065e-01, 3.24339956e-01,
          1.28801376e-01, 7.26883411e-02, 4.95401472e-02, 2.18581676e-01,
          4.78508323e-02, 1.74797922e-02, 3.26831862e-02, 3.50663438e-02,
          3.24339956e-01, 4.32358161e-02, 3.01470943e-02, 4.47661942e-03,
          4.25047763e-02, 2.18617335e-01, 1.44815817e-01, 8.48973468e-02,
          1.73015043e-01, 3.24339956e-01, 2.62983471e-01, 1.41518816e-01,
          8.53741616e-02, 2.85747349e-01, 3.29610147e-02, 4.52307649e-02,
          4.81875092e-02, 6.28772303e-02, 3.24339956e-01, 7.23889545e-02,
          4.59174924e-02, 2.93158982e-02, 5.02822883e-02, 8.94095656e-03,
          6.48652157e-03, 5.45628928e-02, 4.68448922e-02, 4.74441528e-01,
          2.11149305e-02, 2.06910423e-03, 8.90770869e-04, 5.60439518e-03,
          5.88616123e-03, 4.02194727e-03, 2.65241582e-02, 2.80754976e-02,
          4.74441528e-01, 1.52892862e-02, 1.78269553e-03, 7.78927235e-04,
          1.82257814e-03, 4.78979535e-02, 2.61942316e-02, 1.66274786e-01,
          9.48908329e-02, 4.74441528e-01, 1.23551264e-01, 1.09622389e-01,
          2.77806744e-02, 2.33140886e-02, 3.35944854e-02, 1.96134802e-02,
          8.06509480e-02, 5.51399104e-02, 4.74441528e-01, 6.07124008e-02,
          6.45482391e-02, 1.26080755e-02, 4.90075583e-03, 3.38290236e-04,
          4.26221413e-05, 7.79098846e-05, 1.12032692e-03, 4.98749346e-01,
          8.27522541e-04, 2.78900407e-04, 2.90804805e-04, 3.79254809e-04,
          4.49169384e-05, 6.00834892e-06, 1.79792023e-05, 5.29771496e-04,
          4.98749346e-01, 1.31565685e-04, 9.37161349e-06, 3.65946617e-05,
          5.19891328e-05, 4.23755759e-04, 2.96790357e-04, 1.43636687e-04,
          1.96551834e-03, 4.98749346e-01, 2.35299394e-03, 4.44862904e-04,
          6.90406072e-04, 4.92953230e-04, 4.53151879e-05, 7.72501971e-06,
          2.31161193e-05, 8.94314260e-04, 4.98749346e-01, 9.95724695e-04,
          1.20492195e-05, 1.02986618e-04, 6.61546146e-05 ]
      - [ 2.95075685e-01, 1.64967278e-05, 4.91086575e-05, 2.37684362e-04,
          2.02678218e-02, 5.06602228e-04, 8.62925022e-04, 2.78978632e-03,
          2.97194183e-01, 2.49034494e-01, 4.08554375e-02, 1.82900876e-02,
          7.91557729e-02, 5.36619127e-01, 1.25653759e-01, 6.18797876e-02,
          9.43354219e-02, 3.15738261e-01, 2.83582043e-03, 1.08898582e-03,
          2.70224363e-03, 5.44303679e-04, 2.57866792e-02, 4.32332163e-04,
          1.55696424e-03, 1.30310131e-03, 2.64979666e-03, 4.82497178e-02,
          4.10005264e-02, 5.67768812e-02, 9.42910165e-02, 5.36619127e-01,
          6.94926456e-02, 4.32275124e-02, 3.65271978e-02, 1.39869109e-01,
          1.02974311e-01, 9.91662368e-02, 7.10832179e-02, 1.40432075e-01,
          3.80990624e-01, 8.05734619e-02, 6.43229336e-02, 5.24740107e-02,
          1.08247794e-01, 1.42792538e-01, 1.35957778e-01, 1.77831531e-01,
          1.83515713e-01, 3.80990624e-01, 1.13754347e-01, 1.05575532e-01,
          1.17859147e-01, 1.23500161e-01, 6.55129775e-02, 6.18998334e-02,
          7.79914558e-02, 1.07561879e-01, 3.80990624e-01, 1.19877301e-01,
          8.12896788e-02, 7.59218857e-02, 1.98665231e-01, 6.02315851e-02,
          5.32838367e-02, 6.90874532e-02, 9.26687643e-02, 3.80990624e-01,
          1.40576571e-01, 1.37689665e-01, 1.17223196e-01, 1.53573856e-01,
          5.29813133e-02, 3.39543521e-02, 5.80709167e-02, 7.24712908e-02,
          4.23196137e-01, 2.03460947e-01, 1.55522078e-01, 1.51624516e-01,
          7.86983892e-02, 4.17999923e-02, 3.74827310e-02, 7.31423572e-02,
          1.95182204e-01, 4.23196137e-01, 2.08795652e-01, 1.32541850e-01,
          8.03414658e-02, 3.93231660e-02, 1.88601613e-02, 9.31318104e-03,
          2.16163322e-02, 5.87387010e-02, 4.23196137e-01, 1.00381553e-01,
          7.54813775e-02, 5.93731888e-02, 1.73220374e-02, 1.25816679e-02,
          7.01660197e-03, 2.31578574e-02, 1.06989659e-01, 4.23196137e-01,
          1.27140969e-01, 5.27579412e-02, 3.02439146e-02, 1.63414143e-02,
          1.12970710e-01, 4.81393486e-02, 8.61104056e-02, 1.82596147e-01,
          4.52340335e-01, 1.01487741e-01, 5.30900508e-02, 6.06533745e-03,
          9.91693810e-02, 9.80327129e-02, 2.65131202e-02, 3.03965639e-02,
          5.21091036e-02, 4.52340335e-01, 5.31305559e-02, 3.45971547e-02,
          2.77863089e-02, 1.12556331e-01, 3.50268632e-02, 1.20179234e-02,
          1.72096714e-02, 6.65201321e-02, 4.52340335e-01, 5.73841445e-02,
          2.29052696e-02, 3.51742399e-03, 4.71879169e-02, 5.03850989e-02,
          9.53448117e-02, 1.23267807e-01, 8.07246268e-02, 4.52340335e-01,
          8.97134393e-02, 2.10260823e-02, 5.64583354e-02, 9.81191993e-02,
          6.52843043e-02, 7.36515149e-02, 7.81275183e-02, 7.21706972e-02,
          3.01255733e-01, 2.31655780e-02, 1.31391063e-02, 8.46943166e-03,
          4.81385142e-02, 1.01539172e-01, 2.41049170e-01, 1.98133022e-01,
          2.13970259e-01, 3.01255733e-01, 5.47673628e-02, 4.57006618e-02,
          3.68350893e-02, 7.73665607e-02, 4.38603014e-02, 2.16544136e-01,
          3.01255733e-01, 1.22172445e-01, 3.01255733e-01, 5.05923256e-02,
          3.50925773e-02, 3.91691625e-02, 6.81679025e-02, 6.01045154e-02,
          3.01255733e-01, 3.01255733e-01, 3.01255733e-01, 3.01255733e-01,
          3.24773900e-02, 3.95980850e-02, 1.30579825e-02, 2.91175731e-02,
          8.61543715e-02, 1.77536681e-01, 1.47872791e-01, 2.01420650e-01,
          4.27000195e-01, 9.35285911e-02, 5.04697077e-02, 6.11486807e-02,
          6.62941635e-02, 1.21223412e-01, 2.29298715e-02, 1.73176955e-02,
          4.79177572e-02, 4.27000195e-01, 3.00772395e-02, 5.99065516e-03,
          1.04910340e-02, 9.49225351e-02, 2.37356331e-02, 1.32185087e-01,
          1.99070454e-01, 2.38964021e-01, 4.27000195e-01, 4.10987847e-02,
          1.52269714e-02, 2.41025514e-03, 6.54275296e-03, 8.23309470e-04,
          4.07409901e-03, 9.38981865e-03, 2.28263047e-02, 4.27000195e-01,
          1.91577114e-02, 1.57843926e-04, 6.58379795e-05, 7.72122294e-04,
          6.85677826e-02, 4.04320620e-02, 2.03986485e-02, 6.81176782e-02,
          4.88258600e-01, 1.28316637e-02, 7.79001799e-04, 6.00724714e-03,
          7.79070109e-02, 1.75696332e-02, 7.62510970e-02, 2.57741380e-02,
          1.02835022e-01, 4.88258600e-01, 3.78753059e-02, 1.56960858e-03,
          1.27414456e-02, 3.34912427e-02, 2.82850146e-04, 1.08213862e-03,
          3.54820909e-03, 2.38699503e-02, 4.88258600e-01, 7.39526190e-03,
          5.09133242e-05, 3.25480141e-05, 2.74472404e-04, 1.42419362e-04,
          1.82563241e-03, 6.17304025e-03, 5.27958907e-02, 4.88258600e-01,
          1.79906711e-02, 2.24596108e-04, 6.57513301e-05, 1.23855687e-04,
          4.57881065e-03, 1.97903998e-03, 3.88091849e-03, 1.10925373e-03,
          2.70671025e-02, 7.42298551e-04, 2.12001405e-03, 1.60754810e-03,
          3.13437474e-03, 1.88713819e-02, 1.94599871e-02, 3.89760137e-02,
          1.07981987e-01, 6.58820927e-01, 8.17198530e-02, 1.51217887e-02,
          2.16067731e-02, 5.67467287e-02, 6.83046272e-03, 4.74764453e-03,
          6.91482611e-03, 9.11968667e-03, 4.29173782e-02, 4.06787032e-03,
          4.45628818e-03, 4.38232766e-03, 6.11112127e-03, 1.16356676e-02,
          1.16789542e-01, 1.53045386e-01, 2.31618345e-01, 6.58820927e-01,
          8.08244795e-02, 2.10403558e-02, 2.56344955e-03, 8.45419895e-03,
          1.06219249e-02, 1.22623742e-02, 3.10409069e-02, 6.46925569e-02,
          3.26672494e-01, 1.17535926e-01, 1.23417646e-01, 8.35034549e-02,
          6.44415542e-02, 8.29498768e-02, 1.26148118e-02, 3.82538848e-02,
          4.23259139e-02, 3.26672494e-01, 1.68106124e-01, 3.26672494e-01,
          2.52485901e-01, 1.47607416e-01, 1.17077352e-03, 2.52023600e-02,
          3.45898271e-02, 6.89795911e-02, 3.26672494e-01, 7.15034902e-02,
          1.30452022e-01, 6.21029027e-02, 6.20759977e-03, 9.69666988e-02,
          8.57271440e-03, 3.38919237e-02, 2.62648873e-02, 2.95516878e-01,
          1.48940951e-01, 3.26672494e-01, 3.26672494e-01, 1.82553887e-01,
          1.55066520e-01, 3.03932540e-02, 6.10895939e-02, 6.77508712e-02,
          3.02894622e-01, 6.51731864e-02, 1.62988454e-01, 1.01657651e-01,
          1.37953043e-01, 1.36145130e-01, 2.65701823e-02, 4.86992858e-02,
          8.82009417e-02, 3.02894622e-01, 1.19711362e-01, 7.49506205e-02,
          4.74633425e-02, 1.67405546e-01, 2.18045071e-01, 3.34192738e-02,
          6.42516017e-02, 4.03095633e-02, 9.32141542e-02, 7.43726715e-02,
          3.02894622e-01, 2.99071401e-01, 3.02894622e-01, 3.02894622e-01,
          3.47800627e-02, 4.78867069e-02, 4.72561903e-02, 1.94808513e-01,
          8.01465139e-02, 1.87282756e-01, 1.73644871e-01, 3.02894622e-01,
          2.23908976e-01, 2.07120106e-02, 9.40072350e-03, 2.71514859e-02,
          2.77666390e-01, 5.85800484e-02, 4.27899212e-02, 3.24735865e-02,
          2.63519436e-01, 2.45040670e-01, 1.52739808e-01, 1.30085841e-01,
          1.38428301e-01, 2.77666390e-01, 4.72084284e-02, 1.12826023e-02,
          4.30906564e-02, 2.18782812e-01, 2.77666390e-01, 6.79004639e-02,
          6.40350655e-02, 2.95297857e-02, 8.99064168e-02, 5.73857240e-02,
          5.75298704e-02, 6.59569576e-02, 2.77666390e-01, 2.77666390e-01,
          2.77666390e-01, 2.77666390e-01, 1.79194972e-01, 1.35626778e-01,
          3.41782868e-02, 1.50160175e-02, 3.50836217e-02, 2.77666390e-01,
          8.32174569e-02, 2.56838769e-01, 2.56838769e-01, 2.31837079e-01,
          2.56838769e-01, 5.40398732e-02, 2.94989496e-02, 5.80590703e-02,
          1.05572961e-01, 4.38216440e-02, 2.56838769e-01, 2.56838769e-01,
          2.56838769e-01, 2.56838769e-01, 3.15103792e-02, 4.10969295e-02,
          2.87890453e-02, 2.87302937e-02, 1.73937529e-01, 2.56838769e-01,
          2.56838769e-01, 2.55369693e-01, 1.43120110e-01, 2.72682738e-02,
          6.05967641e-03, 2.47642472e-02, 5.51856644e-02, 1.97038688e-02,
          1.90959498e-01, 2.21622258e-01, 2.24580526e-01, 2.35773623e-01,
          4.77205403e-02, 5.20665050e-02, 2.84044445e-02, 1.78858172e-02,
          3.04311570e-02, 1.40236437e-01, 1.82420552e-01, 2.39173785e-01,
          4.11134928e-01, 5.52283078e-02, 5.23182899e-02, 3.39954011e-02,
          4.87225130e-03, 4.82174708e-03, 1.38599807e-02, 3.05000506e-02,
          4.52259481e-02, 4.11134928e-01, 2.57012788e-02, 1.24622621e-02,
          1.20116286e-02, 3.84312909e-04, 2.85121761e-02, 1.81476772e-01,
          2.01251626e-01, 2.52559125e-01, 4.11134928e-01, 1.25855982e-01,
          1.41048595e-01, 7.79174715e-02, 4.23763394e-02, 7.46132014e-03,
          4.57932986e-02, 5.59756346e-02, 7.33911321e-02, 4.11134928e-01,
          5.31215556e-02, 3.78951617e-02, 2.72808205e-02, 1.62038468e-02,
          9.12005416e-05, 9.26160355e-05, 8.22646427e-04, 5.64936502e-03,
          4.98686850e-01, 3.01674288e-03, 4.24608652e-06, 1.41896749e-06,
          9.12005416e-05, 2.92766708e-05, 9.21513856e-06, 1.22805475e-03,
          1.30456621e-02, 4.98686850e-01, 5.52751590e-03, 5.85733615e-05,
          1.95742341e-05, 2.92766708e-05, 4.86509780e-05, 5.73402285e-05,
          1.71583612e-04, 2.09988840e-03, 4.98686850e-01, 2.09671049e-03,
          9.63788334e-05, 3.22081105e-05, 4.86509780e-05, 3.51327435e-06,
          0., 0., 2.79638753e-03, 4.98686850e-01, 2.12146877e-03, 0., 0.,
          3.51327435e-06, 3.07169952e-03, 5.26918797e-03, 8.73850565e-03,
          1.46435853e-02, 5.46171479e-02, 1.15678851e-02, 4.73451428e-03,
          3.93809564e-03, 2.91091623e-03, 3.28997290e-03, 1.79287881e-01,
          2.41494030e-01, 2.65289247e-01, 3.52644622e-01, 1.88035071e-01,
          1.65125251e-01, 7.27501735e-02, 3.55994329e-03, 2.80387839e-03,
          6.71684882e-03, 1.13542005e-02, 2.23721154e-02, 7.91753083e-02,
          1.48714790e-02, 7.99696241e-03, 5.90954348e-03, 2.25151842e-03,
          3.63473897e-03, 1.91312596e-01, 3.52644622e-01, 3.52644622e-01,
          3.52644622e-01, 3.38692546e-01, 2.76317418e-01, 1.76838428e-01,
          2.33520158e-02, 3.15423170e-03, 8.65901411e-02, 1.10095322e-01,
          1.17944181e-01, 3.21463495e-01, 9.58357826e-02, 9.86714065e-02,
          4.19742502e-02, 3.42150824e-03, 6.54625297e-02, 5.02265282e-02,
          4.08718288e-02, 5.30327745e-02, 3.21463495e-01, 5.14331385e-02,
          2.14892671e-01, 1.46743521e-01, 1.27986938e-01, 1.14276120e-02,
          1.26338497e-01, 2.01681569e-01, 1.87258467e-01, 3.21463495e-01,
          1.73780560e-01, 1.34747520e-01, 8.22503865e-02, 2.77426671e-02,
          1.86588973e-01, 2.71893531e-01, 1.72335953e-01, 1.85577035e-01,
          3.21463495e-01, 4.41166572e-02, 8.42713639e-02, 1.22081190e-01,
          2.94301152e-01, 1.26070112e-01, 4.42234799e-02, 3.40730213e-02,
          6.76665828e-02, 9.42497179e-02, 4.77200001e-02, 2.48935774e-01,
          2.01566398e-01, 2.82767415e-01, 2.82767415e-01, 3.47827300e-02,
          2.86557674e-02, 3.71543169e-02, 1.32598892e-01, 5.63081838e-02,
          1.58640623e-01, 1.55467138e-01, 2.82767415e-01, 1.94769517e-01,
          1.55151010e-01, 9.70254093e-02, 1.90831274e-01, 2.82767415e-01,
          5.83566800e-02, 8.57060254e-02, 1.23026535e-01, 2.82767415e-01,
          1.96672261e-01, 1.08135857e-01, 9.59205702e-02, 1.47537082e-01,
          2.82767415e-01, 1.04761846e-01, 8.24722946e-02, 6.45690486e-02,
          2.63760895e-01, 2.74814516e-01, 8.82734135e-02, 9.07085389e-02,
          2.94020269e-02, 6.98878393e-02, 2.70384066e-02, 3.94395478e-02,
          4.71319817e-02, 2.74814516e-01, 2.74814516e-01, 2.44441926e-01,
          2.52877712e-01, 1.00971490e-01, 2.32054800e-01, 3.54707129e-02,
          3.57988104e-02, 4.94480170e-02, 1.93455368e-01, 2.31810004e-01,
          1.94822580e-01, 1.66117549e-01, 9.70814675e-02, 2.74814516e-01,
          7.68115595e-02, 1.30035684e-01, 1.10247500e-01, 2.74814516e-01,
          1.34613708e-01, 1.29420713e-01, 9.95284840e-02, 8.48920196e-02,
          2.74814516e-01, 9.04406607e-02, 1.44738078e-01, 1.27272174e-01,
          1.63400829e-01, 2.05961525e-01, 3.05873960e-01, 3.30961674e-01,
          1.44356042e-01, 3.49741250e-01, 4.91674431e-02, 2.91788317e-02,
          5.24671786e-02, 4.21430171e-02, 1.55575946e-02, 1.27559334e-01,
          1.70493126e-01, 1.50717422e-01, 3.96661550e-01, 5.06794341e-02,
          3.18208188e-02, 1.32338675e-02, 3.05064227e-02, 2.68059485e-02,
          3.97238508e-02, 3.02233826e-02, 6.04102649e-02, 3.96661550e-01,
          6.72624856e-02, 5.62713854e-02, 4.53420505e-02, 1.38215832e-02,
          9.46348440e-03, 5.41474000e-02, 2.96901502e-02, 5.32658324e-02,
          3.96661550e-01, 1.60152256e-01, 3.51298004e-02, 6.12804405e-02,
          1.96753610e-02, 9.06285737e-03, 9.67486426e-02, 1.25305191e-01,
          1.24599390e-01, 4.73042101e-01, 6.28097355e-02, 3.78531031e-02,
          1.46952169e-02, 4.83347028e-02, 2.52596824e-03, 2.91153491e-02,
          3.23194377e-02, 3.64151932e-02, 4.73042101e-01, 2.72568967e-02,
          1.11211427e-02, 5.14165126e-03, 2.07527261e-02, 1.41965011e-02,
          8.09402838e-02, 2.85441075e-02, 5.63117079e-02, 4.73042101e-01,
          1.55918628e-01, 3.80277559e-02, 7.72810355e-02, 3.34435403e-02,
          6.47371216e-03, 3.02140098e-02, 6.85617793e-03, 1.92472395e-02,
          4.73042101e-01, 3.57988067e-02, 9.18669347e-03, 2.23303307e-02,
          1.51435202e-02, 1.01913884e-05, 6.39381542e-05, 1.91327286e-04,
          1.27140805e-03, 4.98750746e-01, 9.92514659e-04, 1.26494298e-04,
          4.22721714e-05, 1.01913884e-05, 0., 0., 0., 4.85945639e-04,
          4.98750746e-01, 5.06157812e-04, 0., 0., 0., 5.46460469e-05,
          6.86003841e-05, 2.05278528e-04, 1.42053608e-03, 4.98750746e-01,
          1.71339139e-03, 1.64880257e-04, 5.51000812e-05, 5.46460469e-05,
          0., 0., 0., 6.74297742e-04, 4.98750746e-01, 9.91279841e-04, 0.,
          0., 0. ]
      - [ 2.25651804e-02, 1.18402494e-02, 4.73130075e-03, 4.79288697e-02,
          3.74220818e-01, 6.06585927e-02, 3.70988995e-02, 2.22707987e-02,
          1.10483915e-02, 1.90560117e-01, 1.00879438e-01, 5.12322932e-02,
          1.76615834e-01, 3.74220818e-01, 1.07095324e-01, 1.06563613e-01,
          8.86803716e-02, 1.27756983e-01, 2.69114021e-02, 3.49358618e-02,
          5.64409941e-02, 6.82785809e-02, 3.74220818e-01, 1.33776516e-01,
          9.05805528e-02, 9.34911743e-02, 2.19615865e-02, 1.71877623e-01,
          8.39248002e-02, 9.88695920e-02, 2.12417960e-01, 3.74220818e-01,
          2.54660249e-01, 2.09857240e-01, 2.09959328e-01, 1.02769800e-01,
          1.06712170e-01, 8.86898786e-02, 5.26658483e-02, 1.28206596e-01,
          3.23121518e-01, 6.64906651e-02, 7.09368289e-02, 7.97886029e-02,
          7.93994889e-02, 1.09335547e-02, 2.19808985e-02, 1.54615100e-02,
          5.70583493e-02, 3.23121518e-01, 9.01292861e-02, 1.15216970e-01,
          6.68091029e-02, 2.74774171e-02, 1.13247573e-01, 3.31238806e-02,
          4.06815745e-02, 1.23901829e-01, 3.23121518e-01, 2.54173577e-01,
          3.23121518e-01, 3.05722952e-01, 6.74223453e-02, 6.46409765e-02,
          2.87696626e-02, 2.54450887e-02, 8.78796801e-02, 3.23121518e-01,
          1.60492599e-01, 3.07035714e-01, 2.24140108e-01, 7.90110677e-02,
          1.42113147e-02, 1.41022988e-02, 1.72665454e-02, 1.09635122e-01,
          4.57761198e-01, 1.33499846e-01, 8.90008509e-02, 5.22395223e-02,
          1.97514966e-02, 6.41243067e-03, 2.91221943e-02, 3.44121419e-02,
          9.48378965e-02, 4.57761198e-01, 6.79535493e-02, 9.61422361e-03,
          6.83844136e-03, 2.11483054e-03, 4.55534495e-02, 2.37549432e-02,
          2.43180208e-02, 1.39319286e-01, 4.57761198e-01, 1.42615825e-01,
          5.59588410e-02, 3.30903269e-02, 6.10332638e-02, 1.03748083e-01,
          6.53103506e-03, 8.40864703e-03, 7.25495070e-02, 4.57761198e-01,
          1.07716732e-01, 4.18677703e-02, 1.93428565e-02, 1.37965530e-01,
          1.27997482e-03, 7.56491814e-03, 8.63669068e-03, 5.24495356e-02,
          4.43593889e-01, 5.16324230e-02, 3.48324841e-03, 9.19811602e-04,
          8.12955084e-04, 1.29748918e-02, 3.66438441e-02, 5.59195541e-02,
          1.16521738e-01, 4.43593889e-01, 1.45623639e-01, 2.34016832e-02,
          5.74615458e-03, 1.74741503e-02, 1.19133160e-01, 1.41520640e-02,
          3.08235008e-02, 7.99001828e-02, 4.43593889e-01, 5.00982106e-02,
          1.71902608e-02, 8.70378967e-03, 1.03935093e-01, 1.13343336e-01,
          1.04247361e-01, 1.65228024e-01, 1.68587610e-01, 4.43593889e-01,
          1.40861839e-01, 9.02692452e-02, 4.65498455e-02, 1.32629946e-01,
          2.63916887e-02, 1.16615750e-01, 2.00296938e-01, 1.12157427e-01,
          3.07026058e-01, 4.59782407e-02, 1.30467052e-02, 1.01626404e-02,
          2.63498984e-02, 1.35546625e-01, 1.64320797e-01, 2.16890603e-01,
          1.79359630e-01, 3.07026058e-01, 6.54020682e-02, 5.07518798e-02,
          3.98572199e-02, 7.64465407e-02, 6.63778409e-02, 2.48843402e-01,
          3.07026058e-01, 2.11302787e-01, 3.07026058e-01, 5.95448650e-02,
          5.35210520e-02, 3.46194617e-02, 9.96590704e-02, 2.16604453e-02,
          2.02805445e-01, 2.68197805e-01, 2.61563659e-01, 3.07026058e-01,
          7.02069029e-02, 2.00849771e-02, 1.08928317e-02, 2.73077581e-02,
          9.92137864e-02, 6.26002327e-02, 5.14419451e-02, 1.16469398e-01,
          4.72348064e-01, 1.25868231e-01, 6.31168783e-02, 3.35848443e-02,
          5.93349487e-02, 2.36967998e-03, 9.76342708e-04, 8.36699794e-04,
          2.79463530e-02, 4.72348064e-01, 3.64806652e-02, 4.62219911e-03,
          2.22482253e-03, 3.25142709e-03, 1.23374173e-02, 3.15614529e-02,
          3.99426594e-02, 1.49561450e-01, 4.72348064e-01, 1.31969258e-01,
          1.41051235e-02, 2.02978333e-03, 6.01037359e-03, 8.97841703e-04,
          2.07950477e-04, 6.22558000e-04, 3.81569788e-02, 4.72348064e-01,
          4.46811244e-02, 1.80256227e-03, 1.01024262e-03, 1.09804131e-03,
          2.23938609e-03, 5.64510413e-02, 4.99254577e-02, 9.20695737e-02,
          2.37266064e-01, 5.84247969e-02, 2.96498258e-02, 3.49091440e-02,
          4.47622128e-03, 5.57115907e-03, 1.59775421e-01, 1.64770439e-01,
          2.37871513e-01, 3.81823033e-01, 1.95144609e-01, 8.94291699e-02,
          1.11505635e-01, 1.04734618e-02, 2.76965532e-03, 5.01831733e-02,
          6.19444251e-02, 1.02650583e-01, 2.49566749e-01, 1.18009806e-01,
          6.76825568e-02, 7.06111714e-02, 8.62748362e-03, 2.92819901e-03,
          1.36714637e-01, 2.13954926e-01, 2.76764303e-01, 3.81823033e-01,
          3.64209026e-01, 1.92253724e-01, 2.17029348e-01, 1.30029786e-02,
          1.25527093e-02, 3.13610695e-02, 6.67607412e-02, 4.51813675e-02,
          4.07810569e-01, 1.33940130e-01, 9.22592059e-02, 8.96044821e-02,
          3.05783171e-02, 4.73653637e-02, 4.61485386e-02, 7.42788389e-02,
          1.06226556e-01, 4.09153700e-01, 2.91509449e-01, 2.62222081e-01,
          2.56301552e-01, 8.39908198e-02, 3.10992636e-03, 3.16525716e-03,
          6.51992112e-03, 1.20344171e-02, 4.09153700e-01, 4.84436378e-02,
          3.32650468e-02, 2.58413255e-02, 8.15053098e-03, 3.72456573e-03,
          2.67830538e-03, 5.64674567e-03, 2.57833432e-02, 4.09153700e-01,
          1.00057140e-01, 1.13097534e-01, 9.06113088e-02, 2.33432315e-02,
          4.78504412e-02, 1.77876130e-02, 1.40922759e-02, 5.78173399e-02,
          2.61290133e-01, 1.91751823e-01, 2.61290133e-01, 2.61290133e-01,
          7.55198747e-02, 1.89301237e-01, 5.74120693e-02, 5.16699515e-02,
          8.65455121e-02, 2.13019222e-01, 1.32525980e-01, 2.61290133e-01,
          2.61290133e-01, 2.61290133e-01, 3.38202380e-02, 5.01018343e-03,
          4.62746061e-03, 1.27312560e-02, 2.61290133e-01, 5.90991564e-02,
          2.32640386e-01, 1.69839546e-01, 9.31666195e-02, 2.07947135e-01,
          3.16334479e-02, 3.34421322e-02, 2.95353793e-02, 7.19649345e-02,
          1.24226503e-01, 2.61290133e-01, 2.42381006e-01, 2.61290133e-01,
          1.80819407e-01, 5.74543700e-02, 6.19508326e-02, 1.34667337e-01,
          2.83201694e-01, 1.09526299e-01, 1.48306459e-01, 8.07269290e-02,
          2.36450329e-01, 2.83201694e-01, 2.52265427e-02, 2.91245263e-02,
          5.96152768e-02, 2.83201694e-01, 8.84110034e-02, 9.06174481e-02,
          4.82568927e-02, 2.83201694e-01, 2.83201694e-01, 5.07354327e-02,
          4.41162288e-02, 4.59583960e-02, 1.48256019e-01, 1.26615912e-01,
          2.51818985e-01, 1.54022232e-01, 2.83201694e-01, 2.83201694e-01,
          8.44585001e-02, 9.75266322e-02, 4.78647724e-02, 7.98138827e-02,
          7.08646849e-02, 9.97471437e-02, 7.55366832e-02, 2.83201694e-01,
          2.67963380e-01, 4.63561416e-02, 7.75800273e-02, 6.59366548e-02,
          2.67963380e-01, 3.27792764e-02, 2.33335383e-02, 2.22866703e-02,
          2.67963380e-01, 1.93374634e-01, 1.50564507e-01, 2.67313361e-01,
          1.59512535e-01, 2.67963380e-01, 5.56189753e-02, 4.58686985e-02,
          4.63171825e-02, 1.39511213e-01, 2.67963380e-01, 1.42418787e-01,
          1.87671185e-01, 6.91120699e-02, 5.92117831e-02, 2.38591172e-02,
          1.54994521e-02, 2.35248972e-02, 2.67963380e-01, 2.67963380e-01,
          2.59360671e-01, 2.67963380e-01, 1.45585045e-01, 1.56115204e-01,
          4.25112210e-02, 4.04109880e-02, 3.02711520e-02, 2.05294192e-01,
          6.78277835e-02, 2.72840768e-01, 3.76201242e-01, 2.68039554e-01,
          2.97368467e-01, 3.03568728e-02, 3.05773914e-02, 2.93302629e-02,
          7.38686323e-02, 5.75432181e-03, 1.46467626e-01, 1.57390341e-01,
          2.18771085e-01, 3.76201242e-01, 4.35849950e-02, 5.04010776e-03,
          4.36491333e-03, 1.06282905e-02, 1.09417245e-01, 2.15793222e-01,
          3.42050403e-01, 1.46153137e-01, 1.36915863e-01, 2.08161864e-02,
          1.96870472e-02, 1.08871106e-02, 3.52073088e-02, 3.66554665e-03,
          3.97843271e-02, 6.16311394e-02, 6.72878176e-02, 3.76201242e-01,
          1.56677719e-02, 6.90900197e-04, 4.32989676e-04, 1.85723638e-03,
          1.46877705e-04, 7.12920493e-03, 7.99306575e-03, 7.00357333e-02,
          4.95794296e-01, 6.15539253e-02, 1.24517494e-04, 7.78072063e-05,
          5.10397542e-04, 3.57081095e-04, 1.90589213e-04, 5.69786760e-04,
          2.20063105e-02, 4.95794296e-01, 2.37394702e-02, 3.73591087e-04,
          3.66229186e-04, 4.06563107e-04, 1.20009368e-04, 4.17502335e-04,
          3.82398284e-04, 3.49002853e-02, 4.95794296e-01, 2.37175189e-02,
          6.36429613e-05, 1.33009298e-05, 2.01784555e-04, 1.26169558e-04,
          6.62031525e-05, 1.98105074e-04, 9.54740308e-03, 4.95794296e-01,
          8.39841273e-03, 1.62831202e-05, 5.48827984e-06, 1.26169558e-04,
          3.34353908e-03, 2.61272341e-02, 6.69787452e-02, 6.77788779e-02,
          2.08959341e-01, 1.19075947e-01, 6.11609966e-02, 5.22592962e-02,
          6.74407696e-03, 5.25472406e-03, 6.04580678e-02, 2.10047081e-01,
          1.91576049e-01, 4.46904898e-01, 4.05042261e-01, 1.72494635e-01,
          1.33083284e-01, 8.84856470e-03, 8.15176580e-04, 6.64736750e-03,
          2.69104242e-02, 2.18356885e-02, 3.24217349e-01, 8.30774382e-02,
          3.59623730e-02, 2.65724473e-02, 2.70766532e-03, 2.81923055e-03,
          2.40528341e-02, 8.34630281e-02, 6.29049614e-02, 4.46904898e-01,
          2.91366905e-01, 1.06938757e-01, 5.21548279e-02, 3.90276918e-03,
          6.97277021e-04, 8.36444378e-04, 1.93872524e-03, 1.07102757e-02,
          4.83738095e-01, 1.00906761e-02, 8.23931405e-05, 9.61789847e-05,
          6.18594058e-04, 2.78599393e-02, 2.96325684e-02, 4.25828137e-02,
          3.72579880e-02, 4.83738095e-01, 2.66535971e-02, 5.18109323e-03,
          3.32235219e-03, 5.28137106e-03, 6.08128263e-04, 2.51587742e-04,
          7.52844906e-04, 1.25192394e-02, 4.83738095e-01, 1.35276197e-02,
          6.74115086e-04, 2.24953488e-04, 6.08128263e-04, 4.89419959e-02,
          1.02198221e-01, 1.27783835e-01, 7.44890347e-02, 4.83738095e-01,
          5.30088432e-02, 9.41254944e-02, 7.80587047e-02, 2.19776183e-02,
          9.05455649e-02, 4.67224009e-02, 7.29269460e-02, 2.43230984e-02,
          2.64182478e-01, 2.11412869e-02, 6.09669536e-02, 4.81443107e-02,
          8.68028626e-02, 1.38963655e-01, 3.07605881e-02, 4.57155295e-02,
          4.59116548e-02, 2.46437624e-01, 8.19986984e-02, 1.95657954e-01,
          1.37606710e-01, 2.64182478e-01, 1.50516197e-01, 1.93883061e-01,
          2.64182478e-01, 9.97508913e-02, 2.64182478e-01, 6.58211187e-02,
          2.64182478e-01, 1.76965982e-01, 1.24382876e-01, 1.33816540e-01,
          1.96197405e-01, 2.43348360e-01, 1.04478270e-01, 2.64182478e-01,
          9.34824795e-02, 2.64182478e-01, 2.26874471e-01, 1.45998359e-01,
          1.94776952e-01, 4.05249037e-02, 2.71643642e-02, 7.37005845e-02,
          3.36172789e-01, 8.58290195e-02, 1.29459754e-01, 1.04213111e-01,
          2.55979985e-01, 3.36172789e-01, 1.08280934e-01, 8.30171034e-02,
          8.98123756e-02, 2.22313866e-01, 5.52926771e-02, 7.02387244e-02,
          7.26789013e-02, 3.36172789e-01, 4.12057154e-02, 5.62885813e-02,
          4.72095571e-02, 8.09123963e-02, 3.36172789e-01, 5.05068563e-02,
          6.74057677e-02, 6.30149990e-02, 3.70208099e-02, 2.20626131e-01,
          1.17352039e-01, 7.17561841e-02, 1.58421963e-01, 3.36172789e-01,
          1.04343608e-01, 1.05093762e-01, 8.73310044e-02, 2.18192354e-01,
          3.30303878e-01, 1.26537636e-01, 1.50192440e-01, 8.45892578e-02,
          1.64093390e-01, 2.51110550e-02, 6.14439994e-02, 5.45148067e-02,
          3.07196498e-01, 2.86535412e-01, 1.15395837e-01, 1.43410578e-01,
          9.62903723e-02, 3.30303878e-01, 6.03926033e-02, 6.19753674e-02,
          3.02563701e-02, 1.29427195e-01, 2.02877909e-01, 1.37468114e-01,
          1.42346621e-01, 1.08803310e-01, 3.30303878e-01, 1.09847598e-01,
          1.88896999e-01, 1.54651612e-01, 2.05034658e-01, 5.00451848e-02,
          5.33269159e-02, 5.76687492e-02, 6.66123778e-02, 3.30303878e-01,
          7.54629523e-02, 7.55850151e-02, 6.71344623e-02, 2.44390350e-02,
          1.04141347e-01, 7.70392343e-02, 1.05377145e-01, 5.81486151e-02,
          3.77011746e-01, 4.68758121e-02, 3.39654274e-02, 8.88314936e-03,
          3.30965482e-02, 2.78021907e-03, 6.73992420e-03, 1.00104054e-02,
          1.82463229e-02, 5.20269930e-01, 1.26024364e-02, 1.08474051e-03,
          9.20386170e-04, 1.41338422e-03, 1.58287231e-02, 5.33766439e-03,
          2.17682403e-03, 3.00660562e-02, 5.20269930e-01, 3.49993519e-02,
          8.97242315e-03, 3.88490525e-03, 4.91810916e-03, 1.66246446e-03,
          8.34802166e-04, 8.52213299e-04, 2.67176200e-02, 5.20269930e-01,
          3.04210130e-02, 1.40324677e-03, 1.52915367e-03, 1.75433839e-03,
          5.56526102e-05, 5.02377588e-06, 1.50330543e-05, 1.39252124e-02,
          4.98340130e-01, 1.02906013e-02, 3.48134672e-05, 1.01626565e-05,
          5.56526102e-05, 8.75226033e-06, 0., 0., 3.14318272e-03,
          4.98340130e-01, 2.42450088e-03, 0., 0., 8.75226033e-06,
          1.09086250e-04, 3.19901737e-05, 6.51432420e-05, 2.38459557e-02,
          4.98340130e-01, 2.63754278e-02, 5.13357700e-05, 5.04439668e-05,
          1.14347662e-04, 0., 0., 0., 5.58183296e-03, 4.98340130e-01,
          6.33693999e-03, 0., 0., 0., 1.36428559e-03, 1.17219426e-02,
          2.13045236e-02, 1.33257424e-02, 3.26729029e-01, 1.04641430e-02,
          4.48431913e-03, 4.15748125e-03, 1.91001955e-03, 2.35706987e-03,
          3.40563692e-02, 6.18201979e-02, 6.14813939e-02, 5.12521923e-01,
          5.39266169e-02, 2.06377115e-02, 1.42590478e-02, 2.99032987e-03,
          2.78133689e-03, 6.29157126e-02, 9.09056962e-02, 6.04750998e-02,
          3.86923611e-01, 1.34911649e-02, 4.33267839e-02, 3.26709300e-02,
          2.78133689e-03, 3.96507978e-03, 1.67345032e-01, 2.76113272e-01,
          1.95850775e-01, 5.12521923e-01, 5.71745448e-02, 1.56843051e-01,
          1.01510599e-01, 4.11145249e-03 ]
      - [ 8.11267085e-03, 1.41449797e-03, 2.00424134e-03, 3.36115947e-03,
          1.51758958e-02, 0., 6.28286740e-04, 2.09962949e-04,
          7.86607061e-03, 3.86985093e-02, 1.98864806e-02, 5.01865111e-02,
          3.28072965e-01, 5.76628268e-01, 2.77955174e-01, 8.07797303e-04,
          2.69952347e-04, 2.75006406e-02, 5.21641038e-03, 1.77878281e-03,
          4.52713063e-03, 9.34832438e-04, 1.94724835e-02, 0.,
          2.40282784e-03, 1.14253198e-03, 5.21796523e-03, 3.55646089e-02,
          9.58246831e-03, 9.67299007e-03, 2.86566079e-01, 5.76628268e-01,
          2.32637674e-01, 3.08935042e-03, 2.50378018e-03, 2.51901764e-02,
          2.92162094e-02, 2.59313248e-02, 5.35794199e-02, 1.62119314e-01,
          3.06873292e-01, 7.95919597e-02, 1.68861654e-02, 2.25954540e-02,
          1.90151650e-02, 1.47662565e-01, 1.71710640e-01, 3.06873292e-01,
          3.06873292e-01, 3.06873292e-01, 1.45430371e-01, 8.07965919e-02,
          9.11935568e-02, 1.16766676e-01, 1.14734620e-02, 1.55478902e-02,
          3.54890078e-02, 1.58574790e-01, 3.06873292e-01, 8.30216184e-02,
          1.52384592e-02, 2.02751607e-02, 8.38858727e-03, 3.82465795e-02,
          4.94637415e-02, 1.90040469e-01, 3.06873292e-01, 3.06873292e-01,
          2.96855479e-01, 1.54845834e-01, 9.70167890e-02, 5.21868207e-02,
          1.55309856e-01, 1.42020002e-01, 1.83845803e-01, 1.66654214e-01,
          1.32580429e-01, 1.77857444e-01, 1.36739254e-01, 1.25549018e-01,
          1.52035564e-01, 1.51400790e-01, 1.40756562e-01, 1.39585763e-01,
          1.09402880e-01, 1.39489561e-01, 1.82511449e-01, 2.19020471e-01,
          2.19020471e-01, 1.44406095e-01, 3.81009728e-02, 2.86827870e-02,
          9.12108123e-02, 2.05042452e-01, 2.19020471e-01, 2.19020471e-01,
          1.95527062e-01, 1.90953612e-01, 1.06136993e-01, 1.18660368e-01,
          2.18160927e-01, 2.19020471e-01, 1.76557347e-01, 1.87744141e-01,
          1.91883758e-01, 1.58662587e-01, 2.19020471e-01, 1.44393742e-01,
          5.17146066e-02, 8.25880691e-02, 1.42364040e-01, 2.28675902e-01,
